<?xml version="1.0"?>
<opencv_storage>
<cascade>
  <stageType>BOOST</stageType>
  <featureType>HAAR</featureType>
  <height>24</height>
  <width>24</width>
  <stageParams>
    <boostType>GAB</boostType>
    <minHitRate>9.9500000476837158e-001</minHitRate>
    <maxFalseAlarm>5.0000000000000000e-001</maxFalseAlarm>
    <weightTrimRate>9.4999999999999996e-001</weightTrimRate>
    <maxDepth>1</maxDepth>
    <maxWeakCount>100</maxWeakCount></stageParams>
  <featureParams>
    <maxCatCount>0</maxCatCount>
    <featSize>1</featSize>
    <mode>BASIC</mode></featureParams>
  <stageNum>10</stageNum>
  <stages>
    <!-- stage 0 -->
    <_>
      <maxWeakCount>5</maxWeakCount>
      <stageThreshold>-1.3369185924530029e+000</stageThreshold>
      <weakClassifiers>
        <_>
          <internalNodes>
            0 -1 55 2.8418793808668852e-003</internalNodes>
          <leafValues>
            -6.8343818187713623e-001 4.0361446142196655e-001</leafValues></_>
        <_>
          <internalNodes>
            0 -1 48 -6.7115515470504761e-002</internalNodes>
          <leafValues>
            6.9198989868164063e-001 -3.9890137314796448e-001</leafValues></_>
        <_>
          <internalNodes>
            0 -1 66 -1.5274828911060467e-005</internalNodes>
          <leafValues>
            -8.2301878929138184e-001 3.4432721138000488e-001</leafValues></_>
        <_>
          <internalNodes>
            0 -1 69 -1.4287799785961397e-005</internalNodes>
          <leafValues>
            -8.4492778778076172e-001 2.1444705128669739e-001</leafValues></_>
        <_>
          <internalNodes>
            0 -1 70 1.3447066521621309e-005</internalNodes>
          <leafValues>
            2.4729032814502716e-001 -8.1335330009460449e-001</leafValues></_></weakClassifiers></_>
    <!-- stage 1 -->
    <_>
      <maxWeakCount>5</maxWeakCount>
      <stageThreshold>-1.0682117938995361e+000</stageThreshold>
      <weakClassifiers>
        <_>
          <internalNodes>
            0 -1 12 -1.1193828284740448e-001</internalNodes>
          <leafValues>
            7.0465487241744995e-001 -5.1921629905700684e-001</leafValues></_>
        <_>
          <internalNodes>
            0 -1 43 4.7828204696998000e-004</internalNodes>
          <leafValues>
            -6.5349346399307251e-001 4.7428151965141296e-001</leafValues></_>
        <_>
          <internalNodes>
            0 -1 4 2.5825864076614380e-001</internalNodes>
          <leafValues>
            2.4634119868278503e-001 -9.2906111478805542e-001</leafValues></_>
        <_>
          <internalNodes>
            0 -1 19 -2.5555421598255634e-003</internalNodes>
          <leafValues>
            -8.3775776624679565e-001 1.6533525288105011e-001</leafValues></_>
        <_>
          <internalNodes>
            0 -1 59 7.3092174716293812e-004</internalNodes>
          <leafValues>
            -3.0717849731445313e-001 5.2643299102783203e-001</leafValues></_></weakClassifiers></_>
    <!-- stage 2 -->
    <_>
      <maxWeakCount>6</maxWeakCount>
      <stageThreshold>-8.3438426256179810e-001</stageThreshold>
      <weakClassifiers>
        <_>
          <internalNodes>
            0 -1 13 -1.9329167902469635e-001</internalNodes>
          <leafValues>
            7.6972281932830811e-001 -4.1255909204483032e-001</leafValues></_>
        <_>
          <internalNodes>
            0 -1 39 3.0799722298979759e-003</internalNodes>
          <leafValues>
            -6.3867241144180298e-001 3.9405474066734314e-001</leafValues></_>
        <_>
          <internalNodes>
            0 -1 21 1.2758299817505758e-005</internalNodes>
          <leafValues>
            2.3603026568889618e-001 -7.4687945842742920e-001</leafValues></_>
        <_>
          <internalNodes>
            0 -1 1 -1.2486776540754363e-005</internalNodes>
          <leafValues>
            -8.0234187841415405e-001 3.8610205054283142e-001</leafValues></_>
        <_>
          <internalNodes>
            0 -1 47 -1.7244014143943787e-001</internalNodes>
          <leafValues>
            6.0931956768035889e-001 -3.7635949254035950e-001</leafValues></_>
        <_>
          <internalNodes>
            0 -1 36 -2.8974451124668121e-003</internalNodes>
          <leafValues>
            -8.5888791084289551e-001 2.7019768953323364e-001</leafValues></_></weakClassifiers></_>
    <!-- stage 3 -->
    <_>
      <maxWeakCount>6</maxWeakCount>
      <stageThreshold>-6.8460988998413086e-001</stageThreshold>
      <weakClassifiers>
        <_>
          <internalNodes>
            0 -1 15 -1.6369038820266724e-001</internalNodes>
          <leafValues>
            6.9574946165084839e-001 -3.7325349450111389e-001</leafValues></_>
        <_>
          <internalNodes>
            0 -1 28 -2.3054599761962891e-001</internalNodes>
          <leafValues>
            6.4638513326644897e-001 -3.2906174659729004e-001</leafValues></_>
        <_>
          <internalNodes>
            0 -1 16 1.2021644579363056e-005</internalNodes>
          <leafValues>
            2.0192250609397888e-001 -8.7940758466720581e-001</leafValues></_>
        <_>
          <internalNodes>
            0 -1 3 3.6797507200390100e-003</internalNodes>
          <leafValues>
            1.8029068410396576e-001 -8.9323312044143677e-001</leafValues></_>
        <_>
          <internalNodes>
            0 -1 3 -5.8462284505367279e-003</internalNodes>
          <leafValues>
            -9.1956341266632080e-001 1.1369741708040237e-001</leafValues></_>
        <_>
          <internalNodes>
            0 -1 42 4.2889531701803207e-002</internalNodes>
          <leafValues>
            -2.7303206920623779e-001 6.0312485694885254e-001</leafValues></_></weakClassifiers></_>
    <!-- stage 4 -->
    <_>
      <maxWeakCount>12</maxWeakCount>
      <stageThreshold>-1.3249212503433228e+000</stageThreshold>
      <weakClassifiers>
        <_>
          <internalNodes>
            0 -1 38 -4.1066540870815516e-004</internalNodes>
          <leafValues>
            3.0909091234207153e-001 -5.3103446960449219e-001</leafValues></_>
        <_>
          <internalNodes>
            0 -1 49 4.7658942639827728e-004</internalNodes>
          <leafValues>
            -4.5574358105659485e-001 3.1516900658607483e-001</leafValues></_>
        <_>
          <internalNodes>
            0 -1 27 -3.2975827343761921e-003</internalNodes>
          <leafValues>
            -9.4223088026046753e-001 1.1638881266117096e-001</leafValues></_>
        <_>
          <internalNodes>
            0 -1 33 -4.0357897523790598e-004</internalNodes>
          <leafValues>
            2.6231530308723450e-001 -4.8441424965858459e-001</leafValues></_>
        <_>
          <internalNodes>
            0 -1 21 -1.1775636266975198e-005</internalNodes>
          <leafValues>
            -7.1234893798828125e-001 1.7730785906314850e-001</leafValues></_>
        <_>
          <internalNodes>
            0 -1 7 -7.6739370822906494e-001</internalNodes>
          <leafValues>
            9.4166988134384155e-001 -1.3653704524040222e-001</leafValues></_>
        <_>
          <internalNodes>
            0 -1 45 2.8680890682153404e-004</internalNodes>
          <leafValues>
            -3.9814475178718567e-001 3.4596183896064758e-001</leafValues></_>
        <_>
          <internalNodes>
            0 -1 1 1.2542095646495000e-005</internalNodes>
          <leafValues>
            1.4626467227935791e-001 -7.2005861997604370e-001</leafValues></_>
        <_>
          <internalNodes>
            0 -1 31 -2.5307072792202234e-004</internalNodes>
          <leafValues>
            3.0371150374412537e-001 -4.4671377539634705e-001</leafValues></_>
        <_>
          <internalNodes>
            0 -1 63 -1.3501989087671973e-005</internalNodes>
          <leafValues>
            -7.1260070800781250e-001 1.6171382367610931e-001</leafValues></_>
        <_>
          <internalNodes>
            0 -1 6 -3.6668291687965393e-001</internalNodes>
          <leafValues>
            8.0792927742004395e-001 -1.9945850968360901e-001</leafValues></_>
        <_>
          <internalNodes>
            0 -1 25 -4.2724916711449623e-003</internalNodes>
          <leafValues>
            -9.0549993515014648e-001 1.7303173243999481e-001</leafValues></_></weakClassifiers></_>
    <!-- stage 5 -->
    <_>
      <maxWeakCount>8</maxWeakCount>
      <stageThreshold>-8.5320478677749634e-001</stageThreshold>
      <weakClassifiers>
        <_>
          <internalNodes>
            0 -1 10 -7.5022295117378235e-002</internalNodes>
          <leafValues>
            6.0000002384185791e-001 -4.0709218382835388e-001</leafValues></_>
        <_>
          <internalNodes>
            0 -1 20 1.1597997399803717e-005</internalNodes>
          <leafValues>
            2.0237153768539429e-001 -7.7411049604415894e-001</leafValues></_>
        <_>
          <internalNodes>
            0 -1 2 3.1584659218788147e-001</internalNodes>
          <leafValues>
            1.1337881535291672e-001 -8.8183081150054932e-001</leafValues></_>
        <_>
          <internalNodes>
            0 -1 60 -1.1276176337560173e-005</internalNodes>
          <leafValues>
            -7.6655405759811401e-001 1.5728124976158142e-001</leafValues></_>
        <_>
          <internalNodes>
            0 -1 40 -5.4061715491116047e-003</internalNodes>
          <leafValues>
            -8.2031303644180298e-001 1.5469692647457123e-001</leafValues></_>
        <_>
          <internalNodes>
            0 -1 64 -1.2503503967309371e-005</internalNodes>
          <leafValues>
            -7.5006699562072754e-001 1.6215910017490387e-001</leafValues></_>
        <_>
          <internalNodes>
            0 -1 34 -7.1141901426017284e-003</internalNodes>
          <leafValues>
            -8.5358363389968872e-001 1.1498270183801651e-001</leafValues></_>
        <_>
          <internalNodes>
            0 -1 30 -4.0334558486938477e-001</internalNodes>
          <leafValues>
            5.4933440685272217e-001 -2.5623252987861633e-001</leafValues></_></weakClassifiers></_>
    <!-- stage 6 -->
    <_>
      <maxWeakCount>9</maxWeakCount>
      <stageThreshold>-9.2412072420120239e-001</stageThreshold>
      <weakClassifiers>
        <_>
          <internalNodes>
            0 -1 9 3.4748131036758423e-001</internalNodes>
          <leafValues>
            -2.7754363417625427e-001 7.3010379076004028e-001</leafValues></_>
        <_>
          <internalNodes>
            0 -1 18 1.0759861652331892e-005</internalNodes>
          <leafValues>
            2.3724880814552307e-001 -5.9267711639404297e-001</leafValues></_>
        <_>
          <internalNodes>
            0 -1 18 -1.5578654711134732e-005</internalNodes>
          <leafValues>
            -8.2030844688415527e-001 1.5051566064357758e-001</leafValues></_>
        <_>
          <internalNodes>
            0 -1 58 -7.1350984275341034e-002</internalNodes>
          <leafValues>
            5.8780467510223389e-001 -2.4662084877490997e-001</leafValues></_>
        <_>
          <internalNodes>
            0 -1 11 -3.6831885576248169e-001</internalNodes>
          <leafValues>
            7.4765068292617798e-001 -1.2839019298553467e-001</leafValues></_>
        <_>
          <internalNodes>
            0 -1 37 -2.3760713636875153e-001</internalNodes>
          <leafValues>
            7.0041227340698242e-001 -1.5063878893852234e-001</leafValues></_>
        <_>
          <internalNodes>
            0 -1 14 1.1902661753993016e-005</internalNodes>
          <leafValues>
            1.6577847301959991e-001 -8.6470532417297363e-001</leafValues></_>
        <_>
          <internalNodes>
            0 -1 0 1.0942677363345865e-005</internalNodes>
          <leafValues>
            1.0461139678955078e-001 -7.7872449159622192e-001</leafValues></_>
        <_>
          <internalNodes>
            0 -1 35 2.0826399850193411e-004</internalNodes>
          <leafValues>
            -3.8138228654861450e-001 2.5140216946601868e-001</leafValues></_></weakClassifiers></_>
    <!-- stage 7 -->
    <_>
      <maxWeakCount>9</maxWeakCount>
      <stageThreshold>-1.0236201286315918e+000</stageThreshold>
      <weakClassifiers>
        <_>
          <internalNodes>
            0 -1 46 -5.3362484322860837e-004</internalNodes>
          <leafValues>
            2.6624739170074463e-001 -5.0602412223815918e-001</leafValues></_>
        <_>
          <internalNodes>
            0 -1 68 1.2426718967617489e-005</internalNodes>
          <leafValues>
            1.8265528976917267e-001 -7.1626800298690796e-001</leafValues></_>
        <_>
          <internalNodes>
            0 -1 68 -1.3760542060481384e-005</internalNodes>
          <leafValues>
            -7.8838378190994263e-001 3.0630719661712646e-001</leafValues></_>
        <_>
          <internalNodes>
            0 -1 61 6.9051852915436029e-004</internalNodes>
          <leafValues>
            -3.6162677407264709e-001 3.9895847439765930e-001</leafValues></_>
        <_>
          <internalNodes>
            0 -1 70 1.1292299859633204e-005</internalNodes>
          <leafValues>
            1.7687450349330902e-001 -7.1307885646820068e-001</leafValues></_>
        <_>
          <internalNodes>
            0 -1 32 -4.2024091817438602e-004</internalNodes>
          <leafValues>
            2.7434411644935608e-001 -4.5222812891006470e-001</leafValues></_>
        <_>
          <internalNodes>
            0 -1 70 -1.1374077985237818e-005</internalNodes>
          <leafValues>
            -5.8982503414154053e-001 2.1454596519470215e-001</leafValues></_>
        <_>
          <internalNodes>
            0 -1 52 4.5279681682586670e-002</internalNodes>
          <leafValues>
            -2.8009924292564392e-001 5.1730197668075562e-001</leafValues></_>
        <_>
          <internalNodes>
            0 -1 22 4.1265076398849487e-001</internalNodes>
          <leafValues>
            1.8177582323551178e-001 -9.2309683561325073e-001</leafValues></_></weakClassifiers></_>
    <!-- stage 8 -->
    <_>
      <maxWeakCount>9</maxWeakCount>
      <stageThreshold>-1.0889236927032471e+000</stageThreshold>
      <weakClassifiers>
        <_>
          <internalNodes>
            0 -1 44 -3.8531774771399796e-004</internalNodes>
          <leafValues>
            3.0751174688339233e-001 -4.6630236506462097e-001</leafValues></_>
        <_>
          <internalNodes>
            0 -1 54 4.9320643302053213e-004</internalNodes>
          <leafValues>
            -3.7804317474365234e-001 2.8875866532325745e-001</leafValues></_>
        <_>
          <internalNodes>
            0 -1 65 -1.2787911146006081e-005</internalNodes>
          <leafValues>
            -8.2339781522750854e-001 1.3723862171173096e-001</leafValues></_>
        <_>
          <internalNodes>
            0 -1 26 -4.7246273607015610e-004</internalNodes>
          <leafValues>
            4.2288184165954590e-001 -2.6653048396110535e-001</leafValues></_>
        <_>
          <internalNodes>
            0 -1 67 -1.2214304661029018e-005</internalNodes>
          <leafValues>
            -7.8178006410598755e-001 1.3833165168762207e-001</leafValues></_>
        <_>
          <internalNodes>
            0 -1 50 -5.0884135998785496e-004</internalNodes>
          <leafValues>
            2.9332146048545837e-001 -3.9638572931289673e-001</leafValues></_>
        <_>
          <internalNodes>
            0 -1 23 -4.8899671435356140e-001</internalNodes>
          <leafValues>
            7.0689493417739868e-001 -1.1472428590059280e-001</leafValues></_>
        <_>
          <internalNodes>
            0 -1 62 -5.5320756509900093e-003</internalNodes>
          <leafValues>
            -9.4402205944061279e-001 1.1465565115213394e-001</leafValues></_>
        <_>
          <internalNodes>
            0 -1 57 3.7945344229228795e-004</internalNodes>
          <leafValues>
            -2.7564665675163269e-001 3.2894322276115417e-001</leafValues></_></weakClassifiers></_>
    <!-- stage 9 -->
    <_>
      <maxWeakCount>9</maxWeakCount>
      <stageThreshold>-9.5794963836669922e-001</stageThreshold>
      <weakClassifiers>
        <_>
          <internalNodes>
            0 -1 24 -3.7365077878348529e-004</internalNodes>
          <leafValues>
            3.9522546529769897e-001 -4.5819398760795593e-001</leafValues></_>
        <_>
          <internalNodes>
            0 -1 56 3.6712503060698509e-004</internalNodes>
          <leafValues>
            -3.8165727257728577e-001 3.9504316449165344e-001</leafValues></_>
        <_>
          <internalNodes>
            0 -1 51 -1.2029274330416229e-005</internalNodes>
          <leafValues>
            -7.7566236257553101e-001 1.5335157513618469e-001</leafValues></_>
        <_>
          <internalNodes>
            0 -1 53 4.5287699322216213e-004</internalNodes>
          <leafValues>
            -3.5374373197555542e-001 3.6545839905738831e-001</leafValues></_>
        <_>
          <internalNodes>
            0 -1 8 4.2783626122400165e-004</internalNodes>
          <leafValues>
            -3.2111391425132751e-001 4.6715000271797180e-001</leafValues></_>
        <_>
          <internalNodes>
            0 -1 5 -4.2096897959709167e-004</internalNodes>
          <leafValues>
            5.0949430465698242e-001 -2.0331010222434998e-001</leafValues></_>
        <_>
          <internalNodes>
            0 -1 41 -4.1487780981697142e-004</internalNodes>
          <leafValues>
            4.9551093578338623e-001 -2.2228026390075684e-001</leafValues></_>
        <_>
          <internalNodes>
            0 -1 17 1.3788405340164900e-005</internalNodes>
          <leafValues>
            1.5270727872848511e-001 -8.2680279016494751e-001</leafValues></_>
        <_>
          <internalNodes>
            0 -1 29 -5.2699707448482513e-003</internalNodes>
          <leafValues>
            -8.2976436614990234e-001 1.2882091104984283e-001</leafValues></_></weakClassifiers></_></stages>
  <features>
    <_>
      <rects>
        <_>
          0 0 2 1 -1.</_>
        <_>
          1 0 1 1 2.</_></rects>
      <tilted>0</tilted></_>
    <_>
      <rects>
        <_>
          0 0 1 2 -1.</_>
        <_>
          0 1 1 1 2.</_></rects>
      <tilted>0</tilted></_>
    <_>
      <rects>
        <_>
          0 0 22 24 -1.</_>
        <_>
          0 12 22 12 2.</_></rects>
      <tilted>0</tilted></_>
    <_>
      <rects>
        <_>
          0 0 24 2 -1.</_>
        <_>
          0 1 24 1 2.</_></rects>
      <tilted>0</tilted></_>
    <_>
      <rects>
        <_>
          0 0 24 22 -1.</_>
        <_>
          0 11 24 11 2.</_></rects>
      <tilted>0</tilted></_>
    <_>
      <rects>
        <_>
          0 2 6 4 -1.</_>
        <_>
          2 2 2 4 3.</_></rects>
      <tilted>0</tilted></_>
    <_>
      <rects>
        <_>
          0 2 24 10 -1.</_>
        <_>
          8 2 8 10 3.</_></rects>
      <tilted>0</tilted></_>
    <_>
      <rects>
        <_>
          0 2 24 22 -1.</_>
        <_>
          8 2 8 22 3.</_></rects>
      <tilted>0</tilted></_>
    <_>
      <rects>
        <_>
          0 3 6 2 -1.</_>
        <_>
          2 3 2 2 3.</_></rects>
      <tilted>0</tilted></_>
    <_>
      <rects>
        <_>
          0 3 24 20 -1.</_>
        <_>
          0 3 12 10 2.</_>
        <_>
          12 13 12 10 2.</_></rects>
      <tilted>0</tilted></_>
    <_>
      <rects>
        <_>
          0 8 14 6 -1.</_>
        <_>
          7 8 7 6 2.</_></rects>
      <tilted>0</tilted></_>
    <_>
      <rects>
        <_>
          0 8 24 10 -1.</_>
        <_>
          8 8 8 10 3.</_></rects>
      <tilted>0</tilted></_>
    <_>
      <rects>
        <_>
          0 8 24 11 -1.</_>
        <_>
          8 8 8 11 3.</_></rects>
      <tilted>0</tilted></_>
    <_>
      <rects>
        <_>
          0 9 24 9 -1.</_>
        <_>
          8 9 8 9 3.</_></rects>
      <tilted>0</tilted></_>
    <_>
      <rects>
        <_>
          0 10 2 1 -1.</_>
        <_>
          1 10 1 1 2.</_></rects>
      <tilted>0</tilted></_>
    <_>
      <rects>
        <_>
          0 11 24 6 -1.</_>
        <_>
          8 11 8 6 3.</_></rects>
      <tilted>0</tilted></_>
    <_>
      <rects>
        <_>
          0 13 2 1 -1.</_>
        <_>
          1 13 1 1 2.</_></rects>
      <tilted>0</tilted></_>
    <_>
      <rects>
        <_>
          0 18 2 1 -1.</_>
        <_>
          1 18 1 1 2.</_></rects>
      <tilted>0</tilted></_>
    <_>
      <rects>
        <_>
          0 22 1 2 -1.</_>
        <_>
          0 23 1 1 2.</_></rects>
      <tilted>0</tilted></_>
    <_>
      <rects>
        <_>
          0 22 24 2 -1.</_>
        <_>
          0 23 24 1 2.</_></rects>
      <tilted>0</tilted></_>
    <_>
      <rects>
        <_>
          0 23 2 1 -1.</_>
        <_>
          1 23 1 1 2.</_></rects>
      <tilted>0</tilted></_>
    <_>
      <rects>
        <_>
          1 0 1 2 -1.</_>
        <_>
          1 1 1 1 2.</_></rects>
      <tilted>0</tilted></_>
    <_>
      <rects>
        <_>
          1 0 23 24 -1.</_>
        <_>
          1 12 23 12 2.</_></rects>
      <tilted>0</tilted></_>
    <_>
      <rects>
        <_>
          1 4 21 17 -1.</_>
        <_>
          8 4 7 17 3.</_></rects>
      <tilted>0</tilted></_>
    <_>
      <rects>
        <_>
          1 9 4 2 -1.</_>
        <_>
          3 9 2 2 2.</_></rects>
      <tilted>0</tilted></_>
    <_>
      <rects>
        <_>
          3 0 17 3 -1.</_>
        <_>
          3 1 17 1 3.</_></rects>
      <tilted>0</tilted></_>
    <_>
      <rects>
        <_>
          3 1 8 1 -1.</_>
        <_>
          7 1 4 1 2.</_></rects>
      <tilted>0</tilted></_>
    <_>
      <rects>
        <_>
          3 22 14 2 -1.</_>
        <_>
          3 23 14 1 2.</_></rects>
      <tilted>0</tilted></_>
    <_>
      <rects>
        <_>
          4 0 10 18 -1.</_>
        <_>
          4 9 10 9 2.</_></rects>
      <tilted>0</tilted></_>
    <_>
      <rects>
        <_>
          4 2 3 22 -1.</_>
        <_>
          5 2 1 22 3.</_></rects>
      <tilted>0</tilted></_>
    <_>
      <rects>
        <_>
          4 3 12 21 -1.</_>
        <_>
          4 10 12 7 3.</_></rects>
      <tilted>0</tilted></_>
    <_>
      <rects>
        <_>
          4 4 16 2 -1.</_>
        <_>
          4 5 16 1 2.</_></rects>
      <tilted>0</tilted></_>
    <_>
      <rects>
        <_>
          4 6 2 13 -1.</_>
        <_>
          5 6 1 13 2.</_></rects>
      <tilted>0</tilted></_>
    <_>
      <rects>
        <_>
          4 7 16 2 -1.</_>
        <_>
          4 8 16 1 2.</_></rects>
      <tilted>0</tilted></_>
    <_>
      <rects>
        <_>
          4 18 20 3 -1.</_>
        <_>
          4 19 20 1 3.</_></rects>
      <tilted>0</tilted></_>
    <_>
      <rects>
        <_>
          4 21 13 3 -1.</_>
        <_>
          4 22 13 1 3.</_></rects>
      <tilted>0</tilted></_>
    <_>
      <rects>
        <_>
          4 21 14 3 -1.</_>
        <_>
          4 22 14 1 3.</_></rects>
      <tilted>0</tilted></_>
    <_>
      <rects>
        <_>
          5 3 7 21 -1.</_>
        <_>
          5 10 7 7 3.</_></rects>
      <tilted>0</tilted></_>
    <_>
      <rects>
        <_>
          5 8 2 8 -1.</_>
        <_>
          6 8 1 8 2.</_></rects>
      <tilted>0</tilted></_>
    <_>
      <rects>
        <_>
          5 18 16 4 -1.</_>
        <_>
          5 20 16 2 2.</_></rects>
      <tilted>0</tilted></_>
    <_>
      <rects>
        <_>
          5 20 17 3 -1.</_>
        <_>
          5 21 17 1 3.</_></rects>
      <tilted>0</tilted></_>
    <_>
      <rects>
        <_>
          8 0 4 3 -1.</_>
        <_>
          10 0 2 3 2.</_></rects>
      <tilted>0</tilted></_>
    <_>
      <rects>
        <_>
          8 7 16 3 -1.</_>
        <_>
          16 7 8 3 2.</_></rects>
      <tilted>0</tilted></_>
    <_>
      <rects>
        <_>
          8 18 12 2 -1.</_>
        <_>
          8 19 12 1 2.</_></rects>
      <tilted>0</tilted></_>
    <_>
      <rects>
        <_>
          9 3 8 2 -1.</_>
        <_>
          9 4 8 1 2.</_></rects>
      <tilted>0</tilted></_>
    <_>
      <rects>
        <_>
          9 21 10 3 -1.</_>
        <_>
          9 22 10 1 3.</_></rects>
      <tilted>0</tilted></_>
    <_>
      <rects>
        <_>
          10 7 4 2 -1.</_>
        <_>
          10 8 4 1 2.</_></rects>
      <tilted>0</tilted></_>
    <_>
      <rects>
        <_>
          11 0 5 24 -1.</_>
        <_>
          11 8 5 8 3.</_></rects>
      <tilted>0</tilted></_>
    <_>
      <rects>
        <_>
          11 3 3 21 -1.</_>
        <_>
          11 10 3 7 3.</_></rects>
      <tilted>0</tilted></_>
    <_>
      <rects>
        <_>
          11 19 4 2 -1.</_>
        <_>
          11 20 4 1 2.</_></rects>
      <tilted>0</tilted></_>
    <_>
      <rects>
        <_>
          12 8 3 2 -1.</_>
        <_>
          12 9 3 1 2.</_></rects>
      <tilted>0</tilted></_>
    <_>
      <rects>
        <_>
          12 22 1 2 -1.</_>
        <_>
          12 23 1 1 2.</_></rects>
      <tilted>0</tilted></_>
    <_>
      <rects>
        <_>
          13 15 6 8 -1.</_>
        <_>
          13 19 6 4 2.</_></rects>
      <tilted>0</tilted></_>
    <_>
      <rects>
        <_>
          13 17 3 2 -1.</_>
        <_>
          13 18 3 1 2.</_></rects>
      <tilted>0</tilted></_>
    <_>
      <rects>
        <_>
          13 19 1 4 -1.</_>
        <_>
          13 21 1 2 2.</_></rects>
      <tilted>0</tilted></_>
    <_>
      <rects>
        <_>
          14 10 10 9 -1.</_>
        <_>
          19 10 5 9 2.</_></rects>
      <tilted>0</tilted></_>
    <_>
      <rects>
        <_>
          14 21 3 2 -1.</_>
        <_>
          14 22 3 1 2.</_></rects>
      <tilted>0</tilted></_>
    <_>
      <rects>
        <_>
          15 0 7 3 -1.</_>
        <_>
          15 1 7 1 3.</_></rects>
      <tilted>0</tilted></_>
    <_>
      <rects>
        <_>
          15 2 3 16 -1.</_>
        <_>
          15 10 3 8 2.</_></rects>
      <tilted>0</tilted></_>
    <_>
      <rects>
        <_>
          15 15 5 2 -1.</_>
        <_>
          15 16 5 1 2.</_></rects>
      <tilted>0</tilted></_>
    <_>
      <rects>
        <_>
          15 22 1 2 -1.</_>
        <_>
          15 23 1 1 2.</_></rects>
      <tilted>0</tilted></_>
    <_>
      <rects>
        <_>
          18 13 2 2 -1.</_>
        <_>
          19 13 1 2 2.</_></rects>
      <tilted>0</tilted></_>
    <_>
      <rects>
        <_>
          21 8 3 16 -1.</_>
        <_>
          22 8 1 16 3.</_></rects>
      <tilted>0</tilted></_>
    <_>
      <rects>
        <_>
          22 1 2 1 -1.</_>
        <_>
          23 1 1 1 2.</_></rects>
      <tilted>0</tilted></_>
    <_>
      <rects>
        <_>
          22 7 2 1 -1.</_>
        <_>
          23 7 1 1 2.</_></rects>
      <tilted>0</tilted></_>
    <_>
      <rects>
        <_>
          22 13 2 1 -1.</_>
        <_>
          23 13 1 1 2.</_></rects>
      <tilted>0</tilted></_>
    <_>
      <rects>
        <_>
          22 15 2 2 -1.</_>
        <_>
          23 15 1 2 2.</_></rects>
      <tilted>0</tilted></_>
    <_>
      <rects>
        <_>
          22 18 2 1 -1.</_>
        <_>
          23 18 1 1 2.</_></rects>
      <tilted>0</tilted></_>
    <_>
      <rects>
        <_>
          22 22 2 2 -1.</_>
        <_>
          22 22 1 1 2.</_>
        <_>
          23 23 1 1 2.</_></rects>
      <tilted>0</tilted></_>
    <_>
      <rects>
        <_>
          22 23 2 1 -1.</_>
        <_>
          23 23 1 1 2.</_></rects>
      <tilted>0</tilted></_>
    <_>
      <rects>
        <_>
          23 0 1 2 -1.</_>
        <_>
          23 1 1 1 2.</_></rects>
      <tilted>0</tilted></_></features></cascade>
</opencv_storage>
