<?xml version="1.0"?>
<opencv_storage>
<cascade>
  <stageType>BOOST</stageType>
  <featureType>HAAR</featureType>
  <height>24</height>
  <width>24</width>
  <stageParams>
    <boostType>GAB</boostType>
    <minHitRate>9.9500000476837158e-001</minHitRate>
    <maxFalseAlarm>5.0000000000000000e-001</maxFalseAlarm>
    <weightTrimRate>9.4999999999999996e-001</weightTrimRate>
    <maxDepth>1</maxDepth>
    <maxWeakCount>100</maxWeakCount></stageParams>
  <featureParams>
    <maxCatCount>0</maxCatCount>
    <featSize>1</featSize>
    <mode>BASIC</mode></featureParams>
  <stageNum>20</stageNum>
  <stages>
    <!-- stage 0 -->
    <_>
      <maxWeakCount>7</maxWeakCount>
      <stageThreshold>-1.0664700269699097e+000</stageThreshold>
      <weakClassifiers>
        <_>
          <internalNodes>
            0 -1 344 7.3728263378143311e-003</internalNodes>
          <leafValues>
            -6.7317575216293335e-001 5.3571426868438721e-001</leafValues></_>
        <_>
          <internalNodes>
            0 -1 362 -6.8079516291618347e-002</internalNodes>
          <leafValues>
            7.3412996530532837e-001 -4.5341184735298157e-001</leafValues></_>
        <_>
          <internalNodes>
            0 -1 90 -1.4295670390129089e-001</internalNodes>
          <leafValues>
            7.7791708707809448e-001 -1.8197397887706757e-001</leafValues></_>
        <_>
          <internalNodes>
            0 -1 435 4.8508659005165100e-002</internalNodes>
          <leafValues>
            -1.5233488380908966e-001 7.9489636421203613e-001</leafValues></_>
        <_>
          <internalNodes>
            0 -1 57 -1.0722944140434265e-001</internalNodes>
          <leafValues>
            8.4216594696044922e-001 -1.1516322195529938e-001</leafValues></_>
        <_>
          <internalNodes>
            0 -1 451 3.6687064915895462e-002</internalNodes>
          <leafValues>
            -1.6404277086257935e-001 6.1190801858901978e-001</leafValues></_>
        <_>
          <internalNodes>
            0 -1 230 -7.3139101266860962e-002</internalNodes>
          <leafValues>
            7.2960317134857178e-001 -1.0231833904981613e-001</leafValues></_></weakClassifiers></_>
    <!-- stage 1 -->
    <_>
      <maxWeakCount>10</maxWeakCount>
      <stageThreshold>-1.2961429357528687e+000</stageThreshold>
      <weakClassifiers>
        <_>
          <internalNodes>
            0 -1 61 -3.9420258253812790e-002</internalNodes>
          <leafValues>
            5.9030300378799438e-001 -4.6039214730262756e-001</leafValues></_>
        <_>
          <internalNodes>
            0 -1 341 -1.1008570343255997e-001</internalNodes>
          <leafValues>
            6.8656343221664429e-001 -3.5560533404350281e-001</leafValues></_>
        <_>
          <internalNodes>
            0 -1 46 -1.3003841042518616e-001</internalNodes>
          <leafValues>
            9.0097612142562866e-001 -1.2546515464782715e-001</leafValues></_>
        <_>
          <internalNodes>
            0 -1 135 -8.5761785507202148e-002</internalNodes>
          <leafValues>
            -7.1083265542984009e-001 1.9754767417907715e-001</leafValues></_>
        <_>
          <internalNodes>
            0 -1 14 1.3536143302917480e-001</internalNodes>
          <leafValues>
            1.2898044288158417e-001 -6.3848048448562622e-001</leafValues></_>
        <_>
          <internalNodes>
            0 -1 180 5.7886308059096336e-003</internalNodes>
          <leafValues>
            9.2449523508548737e-002 -7.9849553108215332e-001</leafValues></_>
        <_>
          <internalNodes>
            0 -1 38 -3.3175477385520935e-001</internalNodes>
          <leafValues>
            8.7467461824417114e-001 -1.0591856390237808e-001</leafValues></_>
        <_>
          <internalNodes>
            0 -1 191 -1.9387787580490112e-001</internalNodes>
          <leafValues>
            8.1621921062469482e-001 -1.0848507285118103e-001</leafValues></_>
        <_>
          <internalNodes>
            0 -1 257 4.3606229126453400e-002</internalNodes>
          <leafValues>
            -1.4266860485076904e-001 5.7574605941772461e-001</leafValues></_>
        <_>
          <internalNodes>
            0 -1 243 -2.8845526278018951e-002</internalNodes>
          <leafValues>
            4.9179464578628540e-001 -2.0899611711502075e-001</leafValues></_></weakClassifiers></_>
    <!-- stage 2 -->
    <_>
      <maxWeakCount>11</maxWeakCount>
      <stageThreshold>-1.5347101688385010e+000</stageThreshold>
      <weakClassifiers>
        <_>
          <internalNodes>
            0 -1 54 -1.4464007318019867e-001</internalNodes>
          <leafValues>
            7.4343121051788330e-001 -3.9986234903335571e-001</leafValues></_>
        <_>
          <internalNodes>
            0 -1 69 -4.9102888442575932e-003</internalNodes>
          <leafValues>
            -7.4925798177719116e-001 2.3745521903038025e-001</leafValues></_>
        <_>
          <internalNodes>
            0 -1 176 -5.9696910902857780e-003</internalNodes>
          <leafValues>
            -8.3704292774200439e-001 1.5148371458053589e-001</leafValues></_>
        <_>
          <internalNodes>
            0 -1 294 -1.0636937618255615e-001</internalNodes>
          <leafValues>
            5.4498463869094849e-001 -2.6943090558052063e-001</leafValues></_>
        <_>
          <internalNodes>
            0 -1 113 5.1071653142571449e-003</internalNodes>
          <leafValues>
            1.6024871170520782e-001 -8.3219456672668457e-001</leafValues></_>
        <_>
          <internalNodes>
            0 -1 347 6.7423909902572632e-002</internalNodes>
          <leafValues>
            -2.2206881642341614e-001 6.3042342662811279e-001</leafValues></_>
        <_>
          <internalNodes>
            0 -1 234 -4.2653880082070827e-003</internalNodes>
          <leafValues>
            -7.7700960636138916e-001 1.9723656773567200e-001</leafValues></_>
        <_>
          <internalNodes>
            0 -1 85 -6.7851440981030464e-003</internalNodes>
          <leafValues>
            -9.2161166667938232e-001 1.1470900475978851e-001</leafValues></_>
        <_>
          <internalNodes>
            0 -1 302 4.9393340945243835e-002</internalNodes>
          <leafValues>
            -2.2189554572105408e-001 5.6335735321044922e-001</leafValues></_>
        <_>
          <internalNodes>
            0 -1 407 -1.0023657977581024e-001</internalNodes>
          <leafValues>
            6.3114565610885620e-001 -1.7994379997253418e-001</leafValues></_>
        <_>
          <internalNodes>
            0 -1 157 1.6173192858695984e-001</internalNodes>
          <leafValues>
            -1.1592877656221390e-001 7.7992796897888184e-001</leafValues></_></weakClassifiers></_>
    <!-- stage 3 -->
    <_>
      <maxWeakCount>13</maxWeakCount>
      <stageThreshold>-1.0000354051589966e+000</stageThreshold>
      <weakClassifiers>
        <_>
          <internalNodes>
            0 -1 51 -2.1700735390186310e-001</internalNodes>
          <leafValues>
            6.7901235818862915e-001 -2.6641884446144104e-001</leafValues></_>
        <_>
          <internalNodes>
            0 -1 248 -2.1440824866294861e-001</internalNodes>
          <leafValues>
            6.8494600057601929e-001 -2.6829034090042114e-001</leafValues></_>
        <_>
          <internalNodes>
            0 -1 318 -5.1036523655056953e-003</internalNodes>
          <leafValues>
            -9.1997706890106201e-001 1.5173941850662231e-001</leafValues></_>
        <_>
          <internalNodes>
            0 -1 185 -6.6145579330623150e-003</internalNodes>
          <leafValues>
            -8.4992724657058716e-001 1.2380139529705048e-001</leafValues></_>
        <_>
          <internalNodes>
            0 -1 40 -1.8927428126335144e-001</internalNodes>
          <leafValues>
            6.8418449163436890e-001 -1.7072218656539917e-001</leafValues></_>
        <_>
          <internalNodes>
            0 -1 155 2.4483251571655273e-001</internalNodes>
          <leafValues>
            -1.6097563505172729e-001 7.2747379541397095e-001</leafValues></_>
        <_>
          <internalNodes>
            0 -1 34 -1.8358452618122101e-001</internalNodes>
          <leafValues>
            7.0892208814620972e-001 -1.2065225094556808e-001</leafValues></_>
        <_>
          <internalNodes>
            0 -1 389 -2.0142140984535217e-001</internalNodes>
          <leafValues>
            5.7072836160659790e-001 -1.8139706552028656e-001</leafValues></_>
        <_>
          <internalNodes>
            0 -1 87 -3.5014715977013111e-003</internalNodes>
          <leafValues>
            -7.9427069425582886e-001 1.6455827653408051e-001</leafValues></_>
        <_>
          <internalNodes>
            0 -1 142 -2.2861157357692719e-001</internalNodes>
          <leafValues>
            6.1695808172225952e-001 -2.1101738512516022e-001</leafValues></_>
        <_>
          <internalNodes>
            0 -1 136 -3.3573689870536327e-004</internalNodes>
          <leafValues>
            4.3867239356040955e-001 -1.7713449895381927e-001</leafValues></_>
        <_>
          <internalNodes>
            0 -1 206 -4.5378446578979492e-001</internalNodes>
          <leafValues>
            8.2714927196502686e-001 -1.2564030289649963e-001</leafValues></_>
        <_>
          <internalNodes>
            0 -1 533 3.0155747663229704e-004</internalNodes>
          <leafValues>
            -2.4283939599990845e-001 3.5806098580360413e-001</leafValues></_></weakClassifiers></_>
    <!-- stage 4 -->
    <_>
      <maxWeakCount>18</maxWeakCount>
      <stageThreshold>-1.1059768199920654e+000</stageThreshold>
      <weakClassifiers>
        <_>
          <internalNodes>
            0 -1 52 -2.8544348478317261e-001</internalNodes>
          <leafValues>
            7.4193549156188965e-001 -2.5330132246017456e-001</leafValues></_>
        <_>
          <internalNodes>
            0 -1 236 -2.4022072553634644e-002</internalNodes>
          <leafValues>
            -8.9870250225067139e-001 1.3045868277549744e-001</leafValues></_>
        <_>
          <internalNodes>
            0 -1 422 -8.5921190679073334e-002</internalNodes>
          <leafValues>
            6.9499909877777100e-001 -1.3359653949737549e-001</leafValues></_>
        <_>
          <internalNodes>
            0 -1 159 -6.8488657474517822e-002</internalNodes>
          <leafValues>
            6.3558238744735718e-001 -1.6992762684822083e-001</leafValues></_>
        <_>
          <internalNodes>
            0 -1 426 -4.7939624637365341e-002</internalNodes>
          <leafValues>
            6.5159422159194946e-001 -1.6776466369628906e-001</leafValues></_>
        <_>
          <internalNodes>
            0 -1 178 -4.6703834086656570e-003</internalNodes>
          <leafValues>
            -6.5852677822113037e-001 1.2633427977561951e-001</leafValues></_>
        <_>
          <internalNodes>
            0 -1 50 -6.6617950797080994e-003</internalNodes>
          <leafValues>
            2.5970026850700378e-001 -2.7125015854835510e-001</leafValues></_>
        <_>
          <internalNodes>
            0 -1 123 -1.8294021487236023e-001</internalNodes>
          <leafValues>
            7.1734082698822021e-001 -1.1860173195600510e-001</leafValues></_>
        <_>
          <internalNodes>
            0 -1 213 -1.4900138974189758e-001</internalNodes>
          <leafValues>
            5.6777912378311157e-001 -1.3279242813587189e-001</leafValues></_>
        <_>
          <internalNodes>
            0 -1 271 1.4166432619094849e-001</internalNodes>
          <leafValues>
            -1.1750192940235138e-001 5.9979414939880371e-001</leafValues></_>
        <_>
          <internalNodes>
            0 -1 107 -3.4610041975975037e-001</internalNodes>
          <leafValues>
            7.7030080556869507e-001 -7.7573835849761963e-002</leafValues></_>
        <_>
          <internalNodes>
            0 -1 71 -5.9796660207211971e-003</internalNodes>
          <leafValues>
            -8.3898627758026123e-001 8.9711830019950867e-002</leafValues></_>
        <_>
          <internalNodes>
            0 -1 383 6.1765089631080627e-003</internalNodes>
          <leafValues>
            5.1758654415607452e-002 -9.4004303216934204e-001</leafValues></_>
        <_>
          <internalNodes>
            0 -1 388 5.4887416772544384e-003</internalNodes>
          <leafValues>
            -1.9404320418834686e-001 3.4645333886146545e-001</leafValues></_>
        <_>
          <internalNodes>
            0 -1 360 5.5861752480268478e-003</internalNodes>
          <leafValues>
            7.3468007147312164e-002 -8.5869532823562622e-001</leafValues></_>
        <_>
          <internalNodes>
            0 -1 110 -6.6922735422849655e-003</internalNodes>
          <leafValues>
            -7.4312722682952881e-001 6.5903201699256897e-002</leafValues></_>
        <_>
          <internalNodes>
            0 -1 524 -1.6550552845001221e-001</internalNodes>
          <leafValues>
            5.9513866901397705e-001 -1.1926371604204178e-001</leafValues></_>
        <_>
          <internalNodes>
            0 -1 148 1.1582991108298302e-002</internalNodes>
          <leafValues>
            1.1200568079948425e-001 -7.5231164693832397e-001</leafValues></_></weakClassifiers></_>
    <!-- stage 5 -->
    <_>
      <maxWeakCount>21</maxWeakCount>
      <stageThreshold>-1.3472144603729248e+000</stageThreshold>
      <weakClassifiers>
        <_>
          <internalNodes>
            0 -1 58 -2.5766736268997192e-001</internalNodes>
          <leafValues>
            7.1904760599136353e-001 -2.3928570747375488e-001</leafValues></_>
        <_>
          <internalNodes>
            0 -1 358 -3.8343049585819244e-002</internalNodes>
          <leafValues>
            5.8166468143463135e-001 -1.8349564075469971e-001</leafValues></_>
        <_>
          <internalNodes>
            0 -1 46 -1.2805971503257751e-001</internalNodes>
          <leafValues>
            7.2801744937896729e-001 -1.2149112671613693e-001</leafValues></_>
        <_>
          <internalNodes>
            0 -1 32 4.3419975042343140e-001</internalNodes>
          <leafValues>
            -1.1933659017086029e-001 7.7938073873519897e-001</leafValues></_>
        <_>
          <internalNodes>
            0 -1 48 -2.0132914185523987e-001</internalNodes>
          <leafValues>
            8.0606156587600708e-001 -1.0100714862346649e-001</leafValues></_>
        <_>
          <internalNodes>
            0 -1 70 -4.8053264617919922e-003</internalNodes>
          <leafValues>
            -6.4973676204681396e-001 1.7852891981601715e-001</leafValues></_>
        <_>
          <internalNodes>
            0 -1 91 -3.5371510311961174e-003</internalNodes>
          <leafValues>
            -5.9002476930618286e-001 1.5133617818355560e-001</leafValues></_>
        <_>
          <internalNodes>
            0 -1 445 -1.5562251210212708e-001</internalNodes>
          <leafValues>
            4.6230798959732056e-001 -2.1424010396003723e-001</leafValues></_>
        <_>
          <internalNodes>
            0 -1 264 4.4965120032429695e-003</internalNodes>
          <leafValues>
            1.7311261594295502e-001 -6.9434100389480591e-001</leafValues></_>
        <_>
          <internalNodes>
            0 -1 227 -2.5441461801528931e-001</internalNodes>
          <leafValues>
            7.0166575908660889e-001 -1.4251026511192322e-001</leafValues></_>
        <_>
          <internalNodes>
            0 -1 219 7.8683048486709595e-003</internalNodes>
          <leafValues>
            -1.4897286891937256e-001 4.6437734365463257e-001</leafValues></_>
        <_>
          <internalNodes>
            0 -1 421 4.4101309031248093e-003</internalNodes>
          <leafValues>
            9.4074152410030365e-002 -7.9757553339004517e-001</leafValues></_>
        <_>
          <internalNodes>
            0 -1 82 5.1148487254977226e-003</internalNodes>
          <leafValues>
            6.3436746597290039e-002 -6.7440062761306763e-001</leafValues></_>
        <_>
          <internalNodes>
            0 -1 382 7.1727409958839417e-003</internalNodes>
          <leafValues>
            -1.6288559138774872e-001 3.4606504440307617e-001</leafValues></_>
        <_>
          <internalNodes>
            0 -1 443 -1.6370780940633267e-004</internalNodes>
          <leafValues>
            3.6743631958961487e-001 -1.6958127915859222e-001</leafValues></_>
        <_>
          <internalNodes>
            0 -1 531 5.4170396178960800e-003</internalNodes>
          <leafValues>
            9.3341410160064697e-002 -7.2297930717468262e-001</leafValues></_>
        <_>
          <internalNodes>
            0 -1 424 -4.5717884786427021e-003</internalNodes>
          <leafValues>
            -7.3780059814453125e-001 6.1539571732282639e-002</leafValues></_>
        <_>
          <internalNodes>
            0 -1 204 1.0087640956044197e-002</internalNodes>
          <leafValues>
            -1.5336741507053375e-001 3.5631948709487915e-001</leafValues></_>
        <_>
          <internalNodes>
            0 -1 156 -2.3090615868568420e-001</internalNodes>
          <leafValues>
            5.0245839357376099e-001 -1.1916979402303696e-001</leafValues></_>
        <_>
          <internalNodes>
            0 -1 203 3.7314104847609997e-003</internalNodes>
          <leafValues>
            8.1551656126976013e-002 -8.4291321039199829e-001</leafValues></_>
        <_>
          <internalNodes>
            0 -1 0 3.4709603642113507e-004</internalNodes>
          <leafValues>
            -1.8474122881889343e-001 3.2988256216049194e-001</leafValues></_></weakClassifiers></_>
    <!-- stage 6 -->
    <_>
      <maxWeakCount>27</maxWeakCount>
      <stageThreshold>-1.2489832639694214e+000</stageThreshold>
      <weakClassifiers>
        <_>
          <internalNodes>
            0 -1 337 -1.5974816679954529e-001</internalNodes>
          <leafValues>
            5.1652175188064575e-001 -2.6032787561416626e-001</leafValues></_>
        <_>
          <internalNodes>
            0 -1 39 -5.5535906553268433e-001</internalNodes>
          <leafValues>
            6.8835729360580444e-001 -1.3395047187805176e-001</leafValues></_>
        <_>
          <internalNodes>
            0 -1 301 -1.3032665848731995e-001</internalNodes>
          <leafValues>
            4.9014413356781006e-001 -1.2218585610389709e-001</leafValues></_>
        <_>
          <internalNodes>
            0 -1 150 3.5600709915161133e-001</internalNodes>
          <leafValues>
            -1.0980404913425446e-001 7.2252672910690308e-001</leafValues></_>
        <_>
          <internalNodes>
            0 -1 215 -2.2503420710563660e-001</internalNodes>
          <leafValues>
            7.2451001405715942e-001 -5.1158331334590912e-002</leafValues></_>
        <_>
          <internalNodes>
            0 -1 479 3.1285600271075964e-003</internalNodes>
          <leafValues>
            5.4120074957609177e-002 -8.8358587026596069e-001</leafValues></_>
        <_>
          <internalNodes>
            0 -1 423 -7.9885058104991913e-002</internalNodes>
          <leafValues>
            4.8681047558784485e-001 -1.0992230474948883e-001</leafValues></_>
        <_>
          <internalNodes>
            0 -1 112 -2.1280243992805481e-001</internalNodes>
          <leafValues>
            6.2198448181152344e-001 -9.5499746501445770e-002</leafValues></_>
        <_>
          <internalNodes>
            0 -1 464 1.2283015166758560e-005</internalNodes>
          <leafValues>
            1.9308364391326904e-001 -3.0259528756141663e-001</leafValues></_>
        <_>
          <internalNodes>
            0 -1 251 2.8306305408477783e-002</internalNodes>
          <leafValues>
            -1.0746746510267258e-001 5.1452523469924927e-001</leafValues></_>
        <_>
          <internalNodes>
            0 -1 228 -2.9107891023159027e-002</internalNodes>
          <leafValues>
            4.9469479918479919e-001 -1.1492197960615158e-001</leafValues></_>
        <_>
          <internalNodes>
            0 -1 205 -1.8396031856536865e-001</internalNodes>
          <leafValues>
            5.9387820959091187e-001 -8.6378306150436401e-002</leafValues></_>
        <_>
          <internalNodes>
            0 -1 437 1.6511878930032253e-003</internalNodes>
          <leafValues>
            7.6391898095607758e-002 -9.2043530941009521e-001</leafValues></_>
        <_>
          <internalNodes>
            0 -1 77 1.1155376210808754e-002</internalNodes>
          <leafValues>
            6.4307443797588348e-002 -6.3515144586563110e-001</leafValues></_>
        <_>
          <internalNodes>
            0 -1 261 -1.6498664021492004e-001</internalNodes>
          <leafValues>
            8.4368366003036499e-001 -6.6552057862281799e-002</leafValues></_>
        <_>
          <internalNodes>
            0 -1 551 8.0161243677139282e-003</internalNodes>
          <leafValues>
            8.2746289670467377e-002 -7.6266783475875854e-001</leafValues></_>
        <_>
          <internalNodes>
            0 -1 355 -1.6396967112086713e-005</internalNodes>
          <leafValues>
            -3.2453599572181702e-001 1.4776185154914856e-001</leafValues></_>
        <_>
          <internalNodes>
            0 -1 241 1.8170159310102463e-002</internalNodes>
          <leafValues>
            -1.5305440127849579e-001 3.4810513257980347e-001</leafValues></_>
        <_>
          <internalNodes>
            0 -1 419 2.7225670055486262e-004</internalNodes>
          <leafValues>
            -1.6399708390235901e-001 3.0882611870765686e-001</leafValues></_>
        <_>
          <internalNodes>
            0 -1 419 -3.5834813024848700e-004</internalNodes>
          <leafValues>
            3.6818671226501465e-001 -1.4115415513515472e-001</leafValues></_>
        <_>
          <internalNodes>
            0 -1 508 -2.3177642375230789e-002</internalNodes>
          <leafValues>
            -6.3376671075820923e-001 8.3473220467567444e-002</leafValues></_>
        <_>
          <internalNodes>
            0 -1 67 1.5856234822422266e-003</internalNodes>
          <leafValues>
            4.5677617192268372e-002 -9.3800055980682373e-001</leafValues></_>
        <_>
          <internalNodes>
            0 -1 273 -1.3822931578033604e-005</internalNodes>
          <leafValues>
            -2.8384938836097717e-001 1.6355679929256439e-001</leafValues></_>
        <_>
          <internalNodes>
            0 -1 418 3.9010168984532356e-004</internalNodes>
          <leafValues>
            -1.9030471146106720e-001 2.6765194535255432e-001</leafValues></_>
        <_>
          <internalNodes>
            0 -1 372 2.3292363621294498e-003</internalNodes>
          <leafValues>
            -1.7989392578601837e-001 3.0566993355751038e-001</leafValues></_>
        <_>
          <internalNodes>
            0 -1 339 -3.5612686770036817e-004</internalNodes>
          <leafValues>
            3.3550378680229187e-001 -1.6355167329311371e-001</leafValues></_>
        <_>
          <internalNodes>
            0 -1 108 5.5768312886357307e-003</internalNodes>
          <leafValues>
            6.4605228602886200e-002 -8.7425148487091064e-001</leafValues></_></weakClassifiers></_>
    <!-- stage 7 -->
    <_>
      <maxWeakCount>25</maxWeakCount>
      <stageThreshold>-1.1132167577743530e+000</stageThreshold>
      <weakClassifiers>
        <_>
          <internalNodes>
            0 -1 89 3.1092050671577454e-001</internalNodes>
          <leafValues>
            -1.5880759060382843e-001 7.5686275959014893e-001</leafValues></_>
        <_>
          <internalNodes>
            0 -1 129 -2.1398785710334778e-001</internalNodes>
          <leafValues>
            6.4410036802291870e-001 -1.3081467151641846e-001</leafValues></_>
        <_>
          <internalNodes>
            0 -1 373 -1.3101434888085350e-005</internalNodes>
          <leafValues>
            -4.0119087696075439e-001 1.5727287530899048e-001</leafValues></_>
        <_>
          <internalNodes>
            0 -1 384 1.1309531146252993e-005</internalNodes>
          <leafValues>
            1.6166716814041138e-001 -3.4793648123741150e-001</leafValues></_>
        <_>
          <internalNodes>
            0 -1 41 -4.8506380990147591e-003</internalNodes>
          <leafValues>
            -7.8900498151779175e-001 9.5625519752502441e-002</leafValues></_>
        <_>
          <internalNodes>
            0 -1 430 3.7611596053466201e-004</internalNodes>
          <leafValues>
            -2.8947806358337402e-001 1.9532904028892517e-001</leafValues></_>
        <_>
          <internalNodes>
            0 -1 62 1.1229863048356492e-005</internalNodes>
          <leafValues>
            2.0932142436504364e-001 -2.7850309014320374e-001</leafValues></_>
        <_>
          <internalNodes>
            0 -1 334 9.6385432407259941e-003</internalNodes>
          <leafValues>
            -1.9345675408840179e-001 2.8997784852981567e-001</leafValues></_>
        <_>
          <internalNodes>
            0 -1 59 -1.1658997209451627e-005</internalNodes>
          <leafValues>
            -3.1406340003013611e-001 1.7126110196113586e-001</leafValues></_>
        <_>
          <internalNodes>
            0 -1 405 -1.4607129991054535e-001</internalNodes>
          <leafValues>
            5.3846246004104614e-001 -1.1361297965049744e-001</leafValues></_>
        <_>
          <internalNodes>
            0 -1 171 -4.2152058333158493e-002</internalNodes>
          <leafValues>
            4.2713284492492676e-001 -1.4050395786762238e-001</leafValues></_>
        <_>
          <internalNodes>
            0 -1 394 -1.4667001366615295e-001</internalNodes>
          <leafValues>
            4.8540863394737244e-001 -1.0376057028770447e-001</leafValues></_>
        <_>
          <internalNodes>
            0 -1 201 2.6112526655197144e-002</internalNodes>
          <leafValues>
            -2.2069896757602692e-001 2.6248976588249207e-001</leafValues></_>
        <_>
          <internalNodes>
            0 -1 221 8.8663436472415924e-003</internalNodes>
          <leafValues>
            7.6864972710609436e-002 -7.4184638261795044e-001</leafValues></_>
        <_>
          <internalNodes>
            0 -1 94 -1.2772044539451599e-001</internalNodes>
          <leafValues>
            5.9737718105316162e-001 -9.9996395409107208e-002</leafValues></_>
        <_>
          <internalNodes>
            0 -1 304 -5.2082887850701809e-004</internalNodes>
          <leafValues>
            2.9540833830833435e-001 -1.8370547890663147e-001</leafValues></_>
        <_>
          <internalNodes>
            0 -1 163 3.0751640442758799e-003</internalNodes>
          <leafValues>
            -1.7144678533077240e-001 3.2952859997749329e-001</leafValues></_>
        <_>
          <internalNodes>
            0 -1 380 -1.1292299859633204e-005</internalNodes>
          <leafValues>
            -2.9475396871566772e-001 1.7838102579116821e-001</leafValues></_>
        <_>
          <internalNodes>
            0 -1 310 -1.4714133612869773e-005</internalNodes>
          <leafValues>
            -2.9359209537506104e-001 1.7911870777606964e-001</leafValues></_>
        <_>
          <internalNodes>
            0 -1 95 -5.5550262331962585e-003</internalNodes>
          <leafValues>
            -8.6165660619735718e-001 4.7333054244518280e-002</leafValues></_>
        <_>
          <internalNodes>
            0 -1 146 8.4128985181450844e-003</internalNodes>
          <leafValues>
            -2.0194493234157562e-001 2.6404604315757751e-001</leafValues></_>
        <_>
          <internalNodes>
            0 -1 253 1.2656108010560274e-003</internalNodes>
          <leafValues>
            6.9979652762413025e-002 -7.8181344270706177e-001</leafValues></_>
        <_>
          <internalNodes>
            0 -1 509 -4.8019983805716038e-003</internalNodes>
          <leafValues>
            -6.7838418483734131e-001 5.3854823112487793e-002</leafValues></_>
        <_>
          <internalNodes>
            0 -1 141 5.1187261939048767e-002</internalNodes>
          <leafValues>
            -1.0120189934968948e-001 4.7531071305274963e-001</leafValues></_>
        <_>
          <internalNodes>
            0 -1 329 -2.4018702097237110e-003</internalNodes>
          <leafValues>
            4.6810963749885559e-001 -1.0001088678836823e-001</leafValues></_></weakClassifiers></_>
    <!-- stage 8 -->
    <_>
      <maxWeakCount>23</maxWeakCount>
      <stageThreshold>-1.0058647394180298e+000</stageThreshold>
      <weakClassifiers>
        <_>
          <internalNodes>
            0 -1 336 -5.2240349352359772e-002</internalNodes>
          <leafValues>
            2.9552888870239258e-001 -3.1360948085784912e-001</leafValues></_>
        <_>
          <internalNodes>
            0 -1 131 -1.1189987510442734e-001</internalNodes>
          <leafValues>
            4.2186519503593445e-001 -1.3807792961597443e-001</leafValues></_>
        <_>
          <internalNodes>
            0 -1 397 3.5451218718662858e-004</internalNodes>
          <leafValues>
            -2.2638428211212158e-001 2.5966492295265198e-001</leafValues></_>
        <_>
          <internalNodes>
            0 -1 491 -9.0949703007936478e-003</internalNodes>
          <leafValues>
            -9.1908049583435059e-001 6.5095253288745880e-002</leafValues></_>
        <_>
          <internalNodes>
            0 -1 127 8.6546614766120911e-003</internalNodes>
          <leafValues>
            5.5961117148399353e-002 -8.3550751209259033e-001</leafValues></_>
        <_>
          <internalNodes>
            0 -1 98 5.2016191184520721e-003</internalNodes>
          <leafValues>
            6.1529636383056641e-002 -7.1275943517684937e-001</leafValues></_>
        <_>
          <internalNodes>
            0 -1 197 -6.3888268778100610e-004</internalNodes>
          <leafValues>
            1.9293145835399628e-001 -2.4120496213436127e-001</leafValues></_>
        <_>
          <internalNodes>
            0 -1 574 -1.1694768545567058e-005</internalNodes>
          <leafValues>
            -2.8600120544433594e-001 1.7566917836666107e-001</leafValues></_>
        <_>
          <internalNodes>
            0 -1 350 1.1921362020075321e-003</internalNodes>
          <leafValues>
            6.2404386699199677e-002 -7.2643774747848511e-001</leafValues></_>
        <_>
          <internalNodes>
            0 -1 154 5.2909727673977613e-004</internalNodes>
          <leafValues>
            -1.8407741189002991e-001 2.5127071142196655e-001</leafValues></_>
        <_>
          <internalNodes>
            0 -1 111 -1.5224518720060587e-003</internalNodes>
          <leafValues>
            3.1092205643653870e-001 -1.5785941481590271e-001</leafValues></_>
        <_>
          <internalNodes>
            0 -1 33 5.0767599605023861e-003</internalNodes>
          <leafValues>
            8.1213153898715973e-002 -9.3463987112045288e-001</leafValues></_>
        <_>
          <internalNodes>
            0 -1 564 -7.4322521686553955e-003</internalNodes>
          <leafValues>
            -7.9763847589492798e-001 3.6029744893312454e-002</leafValues></_>
        <_>
          <internalNodes>
            0 -1 550 -9.8121818155050278e-003</internalNodes>
          <leafValues>
            -9.7501683235168457e-001 3.1885839998722076e-002</leafValues></_>
        <_>
          <internalNodes>
            0 -1 189 3.2793074846267700e-001</internalNodes>
          <leafValues>
            -6.6583186388015747e-002 8.3957690000534058e-001</leafValues></_>
        <_>
          <internalNodes>
            0 -1 210 3.3438421087339520e-004</internalNodes>
          <leafValues>
            -1.3408917188644409e-001 3.2121774554252625e-001</leafValues></_>
        <_>
          <internalNodes>
            0 -1 279 4.2611345998011529e-004</internalNodes>
          <leafValues>
            -1.3973796367645264e-001 3.3448407053947449e-001</leafValues></_>
        <_>
          <internalNodes>
            0 -1 399 1.2923959875479341e-003</internalNodes>
          <leafValues>
            7.1575090289115906e-002 -7.7333211898803711e-001</leafValues></_>
        <_>
          <internalNodes>
            0 -1 100 -1.5065155821503140e-005</internalNodes>
          <leafValues>
            -2.9018008708953857e-001 1.4297333359718323e-001</leafValues></_>
        <_>
          <internalNodes>
            0 -1 86 -6.3200086355209351e-002</internalNodes>
          <leafValues>
            4.6491500735282898e-001 -9.9578827619552612e-002</leafValues></_>
        <_>
          <internalNodes>
            0 -1 81 7.9401186667382717e-004</internalNodes>
          <leafValues>
            -1.5655089914798737e-001 2.6572883129119873e-001</leafValues></_>
        <_>
          <internalNodes>
            0 -1 116 -1.1694768545567058e-005</internalNodes>
          <leafValues>
            -2.6427310705184937e-001 1.6726075112819672e-001</leafValues></_>
        <_>
          <internalNodes>
            0 -1 283 -1.2590449841809459e-005</internalNodes>
          <leafValues>
            -2.9407751560211182e-001 1.3023169338703156e-001</leafValues></_></weakClassifiers></_>
    <!-- stage 9 -->
    <_>
      <maxWeakCount>10</maxWeakCount>
      <stageThreshold>-9.3248081207275391e-001</stageThreshold>
      <weakClassifiers>
        <_>
          <internalNodes>
            0 -1 78 -2.9183214064687490e-004</internalNodes>
          <leafValues>
            3.8569423556327820e-001 -2.7036771178245544e-001</leafValues></_>
        <_>
          <internalNodes>
            0 -1 78 2.4107747594825923e-004</internalNodes>
          <leafValues>
            -2.6971325278282166e-001 4.5290955901145935e-001</leafValues></_>
        <_>
          <internalNodes>
            0 -1 402 2.2014181013219059e-004</internalNodes>
          <leafValues>
            -3.2558566331863403e-001 2.6872974634170532e-001</leafValues></_>
        <_>
          <internalNodes>
            0 -1 482 2.1981503232382238e-004</internalNodes>
          <leafValues>
            -2.3135572671890259e-001 3.4686526656150818e-001</leafValues></_>
        <_>
          <internalNodes>
            0 -1 482 -2.5082935462705791e-004</internalNodes>
          <leafValues>
            3.7603774666786194e-001 -2.2513930499553680e-001</leafValues></_>
        <_>
          <internalNodes>
            0 -1 65 -2.6327784871682525e-004</internalNodes>
          <leafValues>
            3.4991240501403809e-001 -1.7561866343021393e-001</leafValues></_>
        <_>
          <internalNodes>
            0 -1 64 3.6403010017238557e-004</internalNodes>
          <leafValues>
            -1.5654817223548889e-001 4.0915635228157043e-001</leafValues></_>
        <_>
          <internalNodes>
            0 -1 484 -4.1292543755844235e-004</internalNodes>
          <leafValues>
            3.5293576121330261e-001 -1.6948485374450684e-001</leafValues></_>
        <_>
          <internalNodes>
            0 -1 500 1.4608690980821848e-004</internalNodes>
          <leafValues>
            -2.0882770419120789e-001 3.0913504958152771e-001</leafValues></_>
        <_>
          <internalNodes>
            0 -1 3 -3.6237997119314969e-004</internalNodes>
          <leafValues>
            2.7859017252922058e-001 -2.1677799522876740e-001</leafValues></_></weakClassifiers></_>
    <!-- stage 10 -->
    <_>
      <maxWeakCount>29</maxWeakCount>
      <stageThreshold>-1.0876526832580566e+000</stageThreshold>
      <weakClassifiers>
        <_>
          <internalNodes>
            0 -1 297 -2.2557058930397034e-001</internalNodes>
          <leafValues>
            4.2911154031753540e-001 -2.0814767479896545e-001</leafValues></_>
        <_>
          <internalNodes>
            0 -1 377 -1.2398085345921572e-005</internalNodes>
          <leafValues>
            -3.5993474721908569e-001 1.5109030902385712e-001</leafValues></_>
        <_>
          <internalNodes>
            0 -1 458 -1.4746069609827828e-005</internalNodes>
          <leafValues>
            -3.9574426412582397e-001 1.2007884681224823e-001</leafValues></_>
        <_>
          <internalNodes>
            0 -1 460 -8.1737630534917116e-004</internalNodes>
          <leafValues>
            -7.0192950963973999e-001 8.4822304546833038e-002</leafValues></_>
        <_>
          <internalNodes>
            0 -1 379 1.2050485238432884e-003</internalNodes>
          <leafValues>
            4.8404008150100708e-002 -9.0553295612335205e-001</leafValues></_>
        <_>
          <internalNodes>
            0 -1 307 1.3102757511660457e-003</internalNodes>
          <leafValues>
            2.0340343937277794e-002 -8.0991846323013306e-001</leafValues></_>
        <_>
          <internalNodes>
            0 -1 258 1.3111665793985594e-005</internalNodes>
          <leafValues>
            1.2581598758697510e-001 -3.5347649455070496e-001</leafValues></_>
        <_>
          <internalNodes>
            0 -1 475 1.2249162864463869e-005</internalNodes>
          <leafValues>
            1.4736406505107880e-001 -2.7389591932296753e-001</leafValues></_>
        <_>
          <internalNodes>
            0 -1 475 -1.3032939932600129e-005</internalNodes>
          <leafValues>
            -3.0438455939292908e-001 1.4838770031929016e-001</leafValues></_>
        <_>
          <internalNodes>
            0 -1 167 -1.6100768744945526e-001</internalNodes>
          <leafValues>
            4.9544954299926758e-001 -6.7950546741485596e-002</leafValues></_>
        <_>
          <internalNodes>
            0 -1 21 -8.8857680559158325e-002</internalNodes>
          <leafValues>
            7.5447410345077515e-001 -8.3403900265693665e-002</leafValues></_>
        <_>
          <internalNodes>
            0 -1 200 4.9084657803177834e-003</internalNodes>
          <leafValues>
            8.6234271526336670e-002 -6.0723334550857544e-001</leafValues></_>
        <_>
          <internalNodes>
            0 -1 554 3.0280038481578231e-004</internalNodes>
          <leafValues>
            -1.7918786406517029e-001 2.3860405385494232e-001</leafValues></_>
        <_>
          <internalNodes>
            0 -1 417 1.4117881619313266e-005</internalNodes>
          <leafValues>
            1.4969630539417267e-001 -2.9153990745544434e-001</leafValues></_>
        <_>
          <internalNodes>
            0 -1 463 -1.2943131878273562e-005</internalNodes>
          <leafValues>
            -3.4303024411201477e-001 1.4731222391128540e-001</leafValues></_>
        <_>
          <internalNodes>
            0 -1 274 1.1967556929448619e-005</internalNodes>
          <leafValues>
            1.2137559056282043e-001 -3.0556046962738037e-001</leafValues></_>
        <_>
          <internalNodes>
            0 -1 274 -1.2449695532268379e-005</internalNodes>
          <leafValues>
            -2.3492777347564697e-001 1.9319997727870941e-001</leafValues></_>
        <_>
          <internalNodes>
            0 -1 431 1.8105380237102509e-002</internalNodes>
          <leafValues>
            -1.2254513055086136e-001 3.4729510545730591e-001</leafValues></_>
        <_>
          <internalNodes>
            0 -1 15 2.0521220564842224e-001</internalNodes>
          <leafValues>
            1.0100887715816498e-001 -4.3552738428115845e-001</leafValues></_>
        <_>
          <internalNodes>
            0 -1 252 1.2702769599854946e-003</internalNodes>
          <leafValues>
            -1.2602224946022034e-001 3.8366240262985229e-001</leafValues></_>
        <_>
          <internalNodes>
            0 -1 84 -5.3147999569773674e-003</internalNodes>
          <leafValues>
            -7.7884119749069214e-001 6.9473706185817719e-002</leafValues></_>
        <_>
          <internalNodes>
            0 -1 393 1.1511398479342461e-003</internalNodes>
          <leafValues>
            3.7062205374240875e-002 -7.4506926536560059e-001</leafValues></_>
        <_>
          <internalNodes>
            0 -1 255 -4.7311717644333839e-003</internalNodes>
          <leafValues>
            3.2984161376953125e-001 -1.4399565756320953e-001</leafValues></_>
        <_>
          <internalNodes>
            0 -1 365 1.2930746888741851e-003</internalNodes>
          <leafValues>
            5.5156070739030838e-002 -8.5150510072708130e-001</leafValues></_>
        <_>
          <internalNodes>
            0 -1 8 2.0592217147350311e-001</internalNodes>
          <leafValues>
            3.6158833652734756e-002 -7.4454027414321899e-001</leafValues></_>
        <_>
          <internalNodes>
            0 -1 436 -1.6682163113728166e-003</internalNodes>
          <leafValues>
            -7.5281041860580444e-001 4.8219446092844009e-002</leafValues></_>
        <_>
          <internalNodes>
            0 -1 558 2.3878691717982292e-003</internalNodes>
          <leafValues>
            -1.5930816531181335e-001 2.4795821309089661e-001</leafValues></_>
        <_>
          <internalNodes>
            0 -1 277 2.0960019901394844e-002</internalNodes>
          <leafValues>
            -2.0428971946239471e-001 1.9943626224994659e-001</leafValues></_>
        <_>
          <internalNodes>
            0 -1 495 2.7157762087881565e-003</internalNodes>
          <leafValues>
            5.6738790124654770e-002 -8.6752402782440186e-001</leafValues></_></weakClassifiers></_>
    <!-- stage 11 -->
    <_>
      <maxWeakCount>25</maxWeakCount>
      <stageThreshold>-1.0115119218826294e+000</stageThreshold>
      <weakClassifiers>
        <_>
          <internalNodes>
            0 -1 320 -2.1773025393486023e-001</internalNodes>
          <leafValues>
            5.2284264564514160e-001 -1.7936694622039795e-001</leafValues></_>
        <_>
          <internalNodes>
            0 -1 137 -1.8973037600517273e-001</internalNodes>
          <leafValues>
            5.9149062633514404e-001 -1.4095504581928253e-001</leafValues></_>
        <_>
          <internalNodes>
            0 -1 45 -1.6797173023223877e-001</internalNodes>
          <leafValues>
            -5.1149928569793701e-001 1.0578308254480362e-001</leafValues></_>
        <_>
          <internalNodes>
            0 -1 327 1.7585311084985733e-002</internalNodes>
          <leafValues>
            -9.7364120185375214e-002 5.2899771928787231e-001</leafValues></_>
        <_>
          <internalNodes>
            0 -1 306 -6.8747121840715408e-003</internalNodes>
          <leafValues>
            4.6770101785659790e-001 -1.1468967795372009e-001</leafValues></_>
        <_>
          <internalNodes>
            0 -1 330 1.0234626010060310e-002</internalNodes>
          <leafValues>
            -6.2821127474308014e-002 4.3956401944160461e-001</leafValues></_>
        <_>
          <internalNodes>
            0 -1 457 -1.4383627567440271e-003</internalNodes>
          <leafValues>
            3.0858686566352844e-001 -1.6272844374179840e-001</leafValues></_>
        <_>
          <internalNodes>
            0 -1 411 -4.2029508040286601e-004</internalNodes>
          <leafValues>
            3.2558032870292664e-001 -1.6471481323242188e-001</leafValues></_>
        <_>
          <internalNodes>
            0 -1 272 -1.8918886780738831e-002</internalNodes>
          <leafValues>
            3.8065502047538757e-001 -1.1835928261280060e-001</leafValues></_>
        <_>
          <internalNodes>
            0 -1 166 -5.2401781082153320e-001</internalNodes>
          <leafValues>
            6.5771901607513428e-001 -7.2720818221569061e-002</leafValues></_>
        <_>
          <internalNodes>
            0 -1 79 -4.3924367427825928e-001</internalNodes>
          <leafValues>
            6.0250675678253174e-001 -6.5441519021987915e-002</leafValues></_>
        <_>
          <internalNodes>
            0 -1 145 -2.8318181284703314e-004</internalNodes>
          <leafValues>
            3.8354137539863586e-001 -1.1536392569541931e-001</leafValues></_>
        <_>
          <internalNodes>
            0 -1 343 -1.6868900507688522e-002</internalNodes>
          <leafValues>
            6.3296031951904297e-001 -6.2227193266153336e-002</leafValues></_>
        <_>
          <internalNodes>
            0 -1 207 1.2673683464527130e-002</internalNodes>
          <leafValues>
            7.1381844580173492e-002 -6.4717561006546021e-001</leafValues></_>
        <_>
          <internalNodes>
            0 -1 529 4.8550541396252811e-004</internalNodes>
          <leafValues>
            -1.5148544311523438e-001 2.6197987794876099e-001</leafValues></_>
        <_>
          <internalNodes>
            0 -1 12 -3.6455015651881695e-003</internalNodes>
          <leafValues>
            -3.8239979743957520e-001 1.0508558154106140e-001</leafValues></_>
        <_>
          <internalNodes>
            0 -1 286 7.3067424818873405e-004</internalNodes>
          <leafValues>
            -1.4069719612598419e-001 2.9735183715820313e-001</leafValues></_>
        <_>
          <internalNodes>
            0 -1 43 3.8969852030277252e-002</internalNodes>
          <leafValues>
            8.7666235864162445e-002 -5.2465724945068359e-001</leafValues></_>
        <_>
          <internalNodes>
            0 -1 328 4.8309692647308111e-004</internalNodes>
          <leafValues>
            -1.1786352097988129e-001 3.6519563198089600e-001</leafValues></_>
        <_>
          <internalNodes>
            0 -1 2 7.4781268835067749e-002</internalNodes>
          <leafValues>
            6.3411533832550049e-002 -8.7493121623992920e-001</leafValues></_>
        <_>
          <internalNodes>
            0 -1 308 2.7336942730471492e-004</internalNodes>
          <leafValues>
            -1.4804396033287048e-001 2.9678991436958313e-001</leafValues></_>
        <_>
          <internalNodes>
            0 -1 151 -1.1558739095926285e-001</internalNodes>
          <leafValues>
            -3.3115458488464355e-001 1.2828773260116577e-001</leafValues></_>
        <_>
          <internalNodes>
            0 -1 29 4.3239194201305509e-004</internalNodes>
          <leafValues>
            -1.3009738922119141e-001 2.8664019703865051e-001</leafValues></_>
        <_>
          <internalNodes>
            0 -1 133 -9.2808358371257782e-002</internalNodes>
          <leafValues>
            -2.0852592587471008e-001 1.7699156701564789e-001</leafValues></_>
        <_>
          <internalNodes>
            0 -1 326 -6.9682073080912232e-004</internalNodes>
          <leafValues>
            2.9482096433639526e-001 -1.5532636642456055e-001</leafValues></_></weakClassifiers></_>
    <!-- stage 12 -->
    <_>
      <maxWeakCount>35</maxWeakCount>
      <stageThreshold>-9.1935175657272339e-001</stageThreshold>
      <weakClassifiers>
        <_>
          <internalNodes>
            0 -1 270 -2.5294548273086548e-001</internalNodes>
          <leafValues>
            4.5403900742530823e-001 -1.5106260776519775e-001</leafValues></_>
        <_>
          <internalNodes>
            0 -1 195 -3.0031597614288330e-001</internalNodes>
          <leafValues>
            5.9247428178787231e-001 -7.5470261275768280e-002</leafValues></_>
        <_>
          <internalNodes>
            0 -1 124 3.2242041826248169e-001</internalNodes>
          <leafValues>
            -6.6139422357082367e-002 6.5932691097259521e-001</leafValues></_>
        <_>
          <internalNodes>
            0 -1 446 -2.9714204370975494e-002</internalNodes>
          <leafValues>
            3.5939320921897888e-001 -1.9870309531688690e-001</leafValues></_>
        <_>
          <internalNodes>
            0 -1 30 3.9454169571399689e-002</internalNodes>
          <leafValues>
            9.6488282084465027e-002 -7.7744132280349731e-001</leafValues></_>
        <_>
          <internalNodes>
            0 -1 16 2.4714201688766479e-002</internalNodes>
          <leafValues>
            4.9542762339115143e-002 -8.3406114578247070e-001</leafValues></_>
        <_>
          <internalNodes>
            0 -1 434 7.7790266368538141e-004</internalNodes>
          <leafValues>
            -1.1686483770608902e-001 3.3190700411796570e-001</leafValues></_>
        <_>
          <internalNodes>
            0 -1 537 -1.7559407278895378e-002</internalNodes>
          <leafValues>
            -7.3513203859329224e-001 5.9569858014583588e-002</leafValues></_>
        <_>
          <internalNodes>
            0 -1 502 -8.2431837916374207e-002</internalNodes>
          <leafValues>
            5.9876918792724609e-001 -6.6123187541961670e-002</leafValues></_>
        <_>
          <internalNodes>
            0 -1 428 2.0227709319442511e-003</internalNodes>
          <leafValues>
            -9.9228061735630035e-002 3.8350176811218262e-001</leafValues></_>
        <_>
          <internalNodes>
            0 -1 254 -6.4652580767869949e-003</internalNodes>
          <leafValues>
            4.0936127305030823e-001 -8.7044678628444672e-002</leafValues></_>
        <_>
          <internalNodes>
            0 -1 456 -3.1943587237037718e-004</internalNodes>
          <leafValues>
            2.6493966579437256e-001 -1.2665182352066040e-001</leafValues></_>
        <_>
          <internalNodes>
            0 -1 6 -3.1979107856750488e-001</internalNodes>
          <leafValues>
            6.2488049268722534e-001 -5.7875446975231171e-002</leafValues></_>
        <_>
          <internalNodes>
            0 -1 448 5.3390034008771181e-004</internalNodes>
          <leafValues>
            -1.5765240788459778e-001 2.0420117676258087e-001</leafValues></_>
        <_>
          <internalNodes>
            0 -1 68 2.8354893438518047e-003</internalNodes>
          <leafValues>
            2.2486336529254913e-002 -8.7150990962982178e-001</leafValues></_>
        <_>
          <internalNodes>
            0 -1 212 2.0402860827744007e-003</internalNodes>
          <leafValues>
            -1.3270235061645508e-001 2.5072789192199707e-001</leafValues></_>
        <_>
          <internalNodes>
            0 -1 18 -8.5062742233276367e-002</internalNodes>
          <leafValues>
            -6.3967484235763550e-001 5.7096451520919800e-002</leafValues></_>
        <_>
          <internalNodes>
            0 -1 468 -1.5057637028803583e-005</internalNodes>
          <leafValues>
            -2.5982666015625000e-001 1.3201534748077393e-001</leafValues></_>
        <_>
          <internalNodes>
            0 -1 75 4.0424332022666931e-002</internalNodes>
          <leafValues>
            4.7527696937322617e-002 -6.1465132236480713e-001</leafValues></_>
        <_>
          <internalNodes>
            0 -1 395 3.2265678048133850e-002</internalNodes>
          <leafValues>
            3.1950809061527252e-002 -7.2933387756347656e-001</leafValues></_>
        <_>
          <internalNodes>
            0 -1 49 -1.2492643296718597e-001</internalNodes>
          <leafValues>
            -5.1379621028900146e-001 5.5912621319293976e-002</leafValues></_>
        <_>
          <internalNodes>
            0 -1 246 -4.4075161218643188e-002</internalNodes>
          <leafValues>
            -1.4266441762447357e-001 2.5548309087753296e-001</leafValues></_>
        <_>
          <internalNodes>
            0 -1 226 -4.3009221553802490e-002</internalNodes>
          <leafValues>
            -2.1290007233619690e-001 1.7373920977115631e-001</leafValues></_>
        <_>
          <internalNodes>
            0 -1 266 -3.5839468240737915e-002</internalNodes>
          <leafValues>
            5.2213692665100098e-001 -6.3381701707839966e-002</leafValues></_>
        <_>
          <internalNodes>
            0 -1 309 6.4599891193211079e-003</internalNodes>
          <leafValues>
            -1.4954259991645813e-001 2.8084582090377808e-001</leafValues></_>
        <_>
          <internalNodes>
            0 -1 214 -2.4329556524753571e-001</internalNodes>
          <leafValues>
            6.1758804321289063e-001 -5.6168347597122192e-002</leafValues></_>
        <_>
          <internalNodes>
            0 -1 147 1.3941554352641106e-002</internalNodes>
          <leafValues>
            -3.9866402745246887e-002 6.3770490884780884e-001</leafValues></_>
        <_>
          <internalNodes>
            0 -1 352 3.1850412487983704e-002</internalNodes>
          <leafValues>
            -8.7377123534679413e-002 3.6769285798072815e-001</leafValues></_>
        <_>
          <internalNodes>
            0 -1 420 -2.0007160305976868e-001</internalNodes>
          <leafValues>
            6.1592978239059448e-001 -5.0715684890747070e-002</leafValues></_>
        <_>
          <internalNodes>
            0 -1 408 -3.4764434676617384e-003</internalNodes>
          <leafValues>
            -7.2834110260009766e-001 5.2249133586883545e-002</leafValues></_>
        <_>
          <internalNodes>
            0 -1 196 4.5543741434812546e-003</internalNodes>
          <leafValues>
            -1.1799083650112152e-001 3.0383706092834473e-001</leafValues></_>
        <_>
          <internalNodes>
            0 -1 10 9.0141836553812027e-003</internalNodes>
          <leafValues>
            6.9756343960762024e-002 -4.2515957355499268e-001</leafValues></_>
        <_>
          <internalNodes>
            0 -1 117 5.0640909466892481e-004</internalNodes>
          <leafValues>
            -1.4905004203319550e-001 2.0571608841419220e-001</leafValues></_>
        <_>
          <internalNodes>
            0 -1 120 6.3550239428877831e-003</internalNodes>
          <leafValues>
            4.5221216976642609e-002 -6.9856631755828857e-001</leafValues></_>
        <_>
          <internalNodes>
            0 -1 538 3.3744622487574816e-004</internalNodes>
          <leafValues>
            -1.5341694653034210e-001 2.0222790539264679e-001</leafValues></_></weakClassifiers></_>
    <!-- stage 13 -->
    <_>
      <maxWeakCount>39</maxWeakCount>
      <stageThreshold>-9.8070394992828369e-001</stageThreshold>
      <weakClassifiers>
        <_>
          <internalNodes>
            0 -1 126 3.0459120869636536e-001</internalNodes>
          <leafValues>
            -1.0995850712060928e-001 6.5116280317306519e-001</leafValues></_>
        <_>
          <internalNodes>
            0 -1 438 -1.4114042642177083e-005</internalNodes>
          <leafValues>
            -3.5058870911598206e-001 9.1225706040859222e-002</leafValues></_>
        <_>
          <internalNodes>
            0 -1 300 3.3469675108790398e-003</internalNodes>
          <leafValues>
            5.2497629076242447e-002 -9.2839246988296509e-001</leafValues></_>
        <_>
          <internalNodes>
            0 -1 268 -1.2667882401729003e-005</internalNodes>
          <leafValues>
            -2.1109732985496521e-001 1.7275226116180420e-001</leafValues></_>
        <_>
          <internalNodes>
            0 -1 181 6.6847987473011017e-003</internalNodes>
          <leafValues>
            5.8425199240446091e-002 -6.9217360019683838e-001</leafValues></_>
        <_>
          <internalNodes>
            0 -1 275 1.8659199122339487e-003</internalNodes>
          <leafValues>
            4.6360034495592117e-002 -9.0985953807830811e-001</leafValues></_>
        <_>
          <internalNodes>
            0 -1 247 1.3899518307880498e-005</internalNodes>
          <leafValues>
            1.2810552120208740e-001 -2.8032913804054260e-001</leafValues></_>
        <_>
          <internalNodes>
            0 -1 211 4.7072776942513883e-004</internalNodes>
          <leafValues>
            -1.5230605006217957e-001 2.4960443377494812e-001</leafValues></_>
        <_>
          <internalNodes>
            0 -1 260 -1.2208341104269493e-005</internalNodes>
          <leafValues>
            -2.6559922099113464e-001 1.3009940087795258e-001</leafValues></_>
        <_>
          <internalNodes>
            0 -1 199 4.8711526324041188e-004</internalNodes>
          <leafValues>
            -1.4223611354827881e-001 2.4340243637561798e-001</leafValues></_>
        <_>
          <internalNodes>
            0 -1 366 -1.7724623903632164e-003</internalNodes>
          <leafValues>
            -7.7838766574859619e-001 2.4305628612637520e-002</leafValues></_>
        <_>
          <internalNodes>
            0 -1 571 -1.2207337022118736e-005</internalNodes>
          <leafValues>
            -2.5951984524726868e-001 1.3167847692966461e-001</leafValues></_>
        <_>
          <internalNodes>
            0 -1 125 7.0265243994072080e-004</internalNodes>
          <leafValues>
            -1.2966772913932800e-001 2.5585526227951050e-001</leafValues></_>
        <_>
          <internalNodes>
            0 -1 27 -4.2712725698947906e-003</internalNodes>
          <leafValues>
            -6.3387477397918701e-001 3.9417952299118042e-002</leafValues></_>
        <_>
          <internalNodes>
            0 -1 571 1.1867817192978691e-005</internalNodes>
          <leafValues>
            1.3496915996074677e-001 -2.3742310702800751e-001</leafValues></_>
        <_>
          <internalNodes>
            0 -1 28 3.2374408328905702e-004</internalNodes>
          <leafValues>
            -1.1342912912368774e-001 2.7454259991645813e-001</leafValues></_>
        <_>
          <internalNodes>
            0 -1 1 5.2100010216236115e-003</internalNodes>
          <leafValues>
            6.0403637588024139e-002 -6.3606065511703491e-001</leafValues></_>
        <_>
          <internalNodes>
            0 -1 557 -3.3296569017693400e-004</internalNodes>
          <leafValues>
            2.4942286312580109e-001 -1.4061725139617920e-001</leafValues></_>
        <_>
          <internalNodes>
            0 -1 527 -5.0252890214323997e-003</internalNodes>
          <leafValues>
            -8.3776235580444336e-001 6.3612058758735657e-002</leafValues></_>
        <_>
          <internalNodes>
            0 -1 477 1.2338868145889137e-005</internalNodes>
          <leafValues>
            1.1743120104074478e-001 -2.8273180127143860e-001</leafValues></_>
        <_>
          <internalNodes>
            0 -1 83 4.5590818626806140e-004</internalNodes>
          <leafValues>
            -1.2575757503509521e-001 2.7329504489898682e-001</leafValues></_>
        <_>
          <internalNodes>
            0 -1 403 1.3718185982725117e-005</internalNodes>
          <leafValues>
            1.4440535008907318e-001 -2.4230076372623444e-001</leafValues></_>
        <_>
          <internalNodes>
            0 -1 403 -1.3710625353269279e-005</internalNodes>
          <leafValues>
            -2.7995151281356812e-001 1.4728148281574249e-001</leafValues></_>
        <_>
          <internalNodes>
            0 -1 322 1.1682007461786270e-003</internalNodes>
          <leafValues>
            4.2068418115377426e-002 -7.0054793357849121e-001</leafValues></_>
        <_>
          <internalNodes>
            0 -1 265 4.3299258686602116e-004</internalNodes>
          <leafValues>
            -1.3568100333213806e-001 2.4598263204097748e-001</leafValues></_>
        <_>
          <internalNodes>
            0 -1 504 -3.8308737566694617e-004</internalNodes>
          <leafValues>
            3.2707870006561279e-001 -9.7960866987705231e-002</leafValues></_>
        <_>
          <internalNodes>
            0 -1 217 -1.4711506082676351e-005</internalNodes>
          <leafValues>
            -2.4398842453956604e-001 1.4317430555820465e-001</leafValues></_>
        <_>
          <internalNodes>
            0 -1 514 2.4744635447859764e-003</internalNodes>
          <leafValues>
            4.0234867483377457e-002 -9.2320859432220459e-001</leafValues></_>
        <_>
          <internalNodes>
            0 -1 169 -9.4933394575491548e-004</internalNodes>
          <leafValues>
            -8.3586251735687256e-001 2.1652363240718842e-002</leafValues></_>
        <_>
          <internalNodes>
            0 -1 353 2.3797908797860146e-003</internalNodes>
          <leafValues>
            2.6149345561861992e-002 -8.8435411453247070e-001</leafValues></_>
        <_>
          <internalNodes>
            0 -1 381 2.1038120612502098e-003</internalNodes>
          <leafValues>
            -1.1117787659168243e-001 3.1032505631446838e-001</leafValues></_>
        <_>
          <internalNodes>
            0 -1 238 1.7721457406878471e-003</internalNodes>
          <leafValues>
            -1.2151978909969330e-001 2.9323846101760864e-001</leafValues></_>
        <_>
          <internalNodes>
            0 -1 128 -6.1526946723461151e-002</internalNodes>
          <leafValues>
            3.3987158536911011e-001 -1.1176627874374390e-001</leafValues></_>
        <_>
          <internalNodes>
            0 -1 175 2.7783391997218132e-003</internalNodes>
          <leafValues>
            -1.0587873309850693e-001 3.3287057280540466e-001</leafValues></_>
        <_>
          <internalNodes>
            0 -1 24 9.4910208135843277e-003</internalNodes>
          <leafValues>
            7.3304615914821625e-002 -4.9020436406135559e-001</leafValues></_>
        <_>
          <internalNodes>
            0 -1 513 1.3057065189059358e-005</internalNodes>
          <leafValues>
            1.2817582488059998e-001 -2.5897935032844543e-001</leafValues></_>
        <_>
          <internalNodes>
            0 -1 476 5.2462465828284621e-004</internalNodes>
          <leafValues>
            -1.3008005917072296e-001 2.7413046360015869e-001</leafValues></_>
        <_>
          <internalNodes>
            0 -1 99 4.1184742003679276e-003</internalNodes>
          <leafValues>
            9.7042709589004517e-002 -4.1429170966148376e-001</leafValues></_>
        <_>
          <internalNodes>
            0 -1 570 4.8399891238659620e-004</internalNodes>
          <leafValues>
            -1.5735332667827606e-001 2.2515513002872467e-001</leafValues></_></weakClassifiers></_>
    <!-- stage 14 -->
    <_>
      <maxWeakCount>41</maxWeakCount>
      <stageThreshold>-8.7863522768020630e-001</stageThreshold>
      <weakClassifiers>
        <_>
          <internalNodes>
            0 -1 364 -1.1075961589813232e-001</internalNodes>
          <leafValues>
            4.4594594836235046e-001 -1.2860310077667236e-001</leafValues></_>
        <_>
          <internalNodes>
            0 -1 278 -3.9756568730808794e-004</internalNodes>
          <leafValues>
            2.6897099614143372e-001 -1.7062868177890778e-001</leafValues></_>
        <_>
          <internalNodes>
            0 -1 392 -3.2772403955459595e-001</internalNodes>
          <leafValues>
            5.5207663774490356e-001 -6.9074168801307678e-002</leafValues></_>
        <_>
          <internalNodes>
            0 -1 256 -2.9925143718719482e-001</internalNodes>
          <leafValues>
            5.6571859121322632e-001 -7.1654796600341797e-002</leafValues></_>
        <_>
          <internalNodes>
            0 -1 119 3.7525421380996704e-001</internalNodes>
          <leafValues>
            -6.5732538700103760e-002 5.8055174350738525e-001</leafValues></_>
        <_>
          <internalNodes>
            0 -1 455 -1.1466471478343010e-003</internalNodes>
          <leafValues>
            -6.6568446159362793e-001 7.3587268590927124e-002</leafValues></_>
        <_>
          <internalNodes>
            0 -1 109 3.9934157393872738e-003</internalNodes>
          <leafValues>
            5.7582724839448929e-002 -6.4189690351486206e-001</leafValues></_>
        <_>
          <internalNodes>
            0 -1 521 2.9653538949787617e-003</internalNodes>
          <leafValues>
            -9.7100019454956055e-002 3.2010728120803833e-001</leafValues></_>
        <_>
          <internalNodes>
            0 -1 224 4.8949141055345535e-003</internalNodes>
          <leafValues>
            -8.2975395023822784e-002 2.8735059499740601e-001</leafValues></_>
        <_>
          <internalNodes>
            0 -1 292 4.4661498395726085e-004</internalNodes>
          <leafValues>
            -1.3350777328014374e-001 2.3047527670860291e-001</leafValues></_>
        <_>
          <internalNodes>
            0 -1 76 -6.9113979116082191e-003</internalNodes>
          <leafValues>
            -7.5674438476562500e-001 3.4800168126821518e-002</leafValues></_>
        <_>
          <internalNodes>
            0 -1 19 3.5411557555198669e-001</internalNodes>
          <leafValues>
            5.5144671350717545e-002 -5.3821331262588501e-001</leafValues></_>
        <_>
          <internalNodes>
            0 -1 237 -1.2989079550607130e-005</internalNodes>
          <leafValues>
            -2.4091054499149323e-001 1.2563326954841614e-001</leafValues></_>
        <_>
          <internalNodes>
            0 -1 179 6.9022469688206911e-004</internalNodes>
          <leafValues>
            -1.3220861554145813e-001 2.6692363619804382e-001</leafValues></_>
        <_>
          <internalNodes>
            0 -1 9 -3.1090798974037170e-001</internalNodes>
          <leafValues>
            4.1062149405479431e-001 -7.5624562799930573e-002</leafValues></_>
        <_>
          <internalNodes>
            0 -1 290 -3.0479734414257109e-004</internalNodes>
          <leafValues>
            2.6644301414489746e-001 -1.3421098887920380e-001</leafValues></_>
        <_>
          <internalNodes>
            0 -1 240 -1.4068114757537842e-001</internalNodes>
          <leafValues>
            -8.3260166645050049e-001 3.8069792091846466e-002</leafValues></_>
        <_>
          <internalNodes>
            0 -1 114 -3.9606413245201111e-001</internalNodes>
          <leafValues>
            -7.8044813871383667e-001 2.8204943984746933e-002</leafValues></_>
        <_>
          <internalNodes>
            0 -1 562 1.4575510285794735e-003</internalNodes>
          <leafValues>
            2.6704967021942139e-002 -8.5555189847946167e-001</leafValues></_>
        <_>
          <internalNodes>
            0 -1 459 1.5388621250167489e-005</internalNodes>
          <leafValues>
            1.0623189061880112e-001 -2.4408093094825745e-001</leafValues></_>
        <_>
          <internalNodes>
            0 -1 276 3.4795296378433704e-003</internalNodes>
          <leafValues>
            -8.8730543851852417e-002 3.0228304862976074e-001</leafValues></_>
        <_>
          <internalNodes>
            0 -1 281 -9.3166902661323547e-002</internalNodes>
          <leafValues>
            5.4904776811599731e-001 -5.2716076374053955e-002</leafValues></_>
        <_>
          <internalNodes>
            0 -1 494 1.3366816565394402e-003</internalNodes>
          <leafValues>
            4.1240163147449493e-002 -8.0500650405883789e-001</leafValues></_>
        <_>
          <internalNodes>
            0 -1 259 -3.3029663609340787e-004</internalNodes>
          <leafValues>
            2.8677442669868469e-001 -9.9161148071289063e-002</leafValues></_>
        <_>
          <internalNodes>
            0 -1 72 3.6442995071411133e-002</internalNodes>
          <leafValues>
            3.8745075464248657e-002 -7.2119849920272827e-001</leafValues></_>
        <_>
          <internalNodes>
            0 -1 555 6.9362687645480037e-004</internalNodes>
          <leafValues>
            -1.2447977811098099e-001 2.2219991683959961e-001</leafValues></_>
        <_>
          <internalNodes>
            0 -1 561 3.7002004683017731e-004</internalNodes>
          <leafValues>
            -9.6760772168636322e-002 2.9429298639297485e-001</leafValues></_>
        <_>
          <internalNodes>
            0 -1 512 2.4370942264795303e-003</internalNodes>
          <leafValues>
            4.2820140719413757e-002 -9.4278532266616821e-001</leafValues></_>
        <_>
          <internalNodes>
            0 -1 130 2.8133904561400414e-004</internalNodes>
          <leafValues>
            -1.1456599831581116e-001 2.6601001620292664e-001</leafValues></_>
        <_>
          <internalNodes>
            0 -1 469 -1.0407833755016327e-001</internalNodes>
          <leafValues>
            3.8398346304893494e-001 -7.1142829954624176e-002</leafValues></_>
        <_>
          <internalNodes>
            0 -1 282 3.1903646886348724e-002</internalNodes>
          <leafValues>
            -9.3253158032894135e-002 3.4535726904869080e-001</leafValues></_>
        <_>
          <internalNodes>
            0 -1 229 2.7940347790718079e-003</internalNodes>
          <leafValues>
            3.5232231020927429e-002 -8.2591044902801514e-001</leafValues></_>
        <_>
          <internalNodes>
            0 -1 519 4.1663373121991754e-004</internalNodes>
          <leafValues>
            -1.2909020483493805e-001 2.1727946400642395e-001</leafValues></_>
        <_>
          <internalNodes>
            0 -1 552 1.5474384781555273e-005</internalNodes>
          <leafValues>
            1.2703613936901093e-001 -2.3717869818210602e-001</leafValues></_>
        <_>
          <internalNodes>
            0 -1 17 5.6584201753139496e-002</internalNodes>
          <leafValues>
            9.3028895556926727e-002 -3.1332522630691528e-001</leafValues></_>
        <_>
          <internalNodes>
            0 -1 447 8.8099716231226921e-004</internalNodes>
          <leafValues>
            -1.4851252734661102e-001 2.1695573627948761e-001</leafValues></_>
        <_>
          <internalNodes>
            0 -1 66 1.8685681279748678e-003</internalNodes>
          <leafValues>
            4.8554424196481705e-002 -6.4132595062255859e-001</leafValues></_>
        <_>
          <internalNodes>
            0 -1 161 -2.3261842131614685e-001</internalNodes>
          <leafValues>
            4.7324627637863159e-001 -7.1172662079334259e-002</leafValues></_>
        <_>
          <internalNodes>
            0 -1 92 -3.3863399177789688e-002</internalNodes>
          <leafValues>
            -1.7805336415767670e-001 1.9194129109382629e-001</leafValues></_>
        <_>
          <internalNodes>
            0 -1 374 -8.5724348900839686e-004</internalNodes>
          <leafValues>
            -7.6356357336044312e-001 3.7037827074527740e-002</leafValues></_>
        <_>
          <internalNodes>
            0 -1 324 -1.0328535921871662e-002</internalNodes>
          <leafValues>
            4.5812955498695374e-001 -7.4698694050312042e-002</leafValues></_></weakClassifiers></_>
    <!-- stage 15 -->
    <_>
      <maxWeakCount>55</maxWeakCount>
      <stageThreshold>-9.6598416566848755e-001</stageThreshold>
      <weakClassifiers>
        <_>
          <internalNodes>
            0 -1 244 -2.0118696615099907e-002</internalNodes>
          <leafValues>
            2.3970037698745728e-001 -1.4559386670589447e-001</leafValues></_>
        <_>
          <internalNodes>
            0 -1 313 -3.0161300674080849e-003</internalNodes>
          <leafValues>
            -4.2057079076766968e-001 6.1860535293817520e-002</leafValues></_>
        <_>
          <internalNodes>
            0 -1 516 -2.8553273295983672e-004</internalNodes>
          <leafValues>
            3.0967131257057190e-001 -9.0080559253692627e-002</leafValues></_>
        <_>
          <internalNodes>
            0 -1 536 -1.4084479516895954e-005</internalNodes>
          <leafValues>
            -3.7435829639434814e-001 7.7694043517112732e-002</leafValues></_>
        <_>
          <internalNodes>
            0 -1 536 -1.6889662947505713e-004</internalNodes>
          <leafValues>
            3.7707093358039856e-001 -5.6992851197719574e-002</leafValues></_>
        <_>
          <internalNodes>
            0 -1 371 1.9044855609536171e-002</internalNodes>
          <leafValues>
            -1.9034489989280701e-001 2.1321320533752441e-001</leafValues></_>
        <_>
          <internalNodes>
            0 -1 209 -2.5468719005584717e-001</internalNodes>
          <leafValues>
            5.5551797151565552e-001 -3.8016628473997116e-002</leafValues></_>
        <_>
          <internalNodes>
            0 -1 332 1.6486530657857656e-003</internalNodes>
          <leafValues>
            4.2674802243709564e-002 -9.0238106250762939e-001</leafValues></_>
        <_>
          <internalNodes>
            0 -1 331 2.3754434660077095e-003</internalNodes>
          <leafValues>
            -1.0582675784826279e-001 2.6229950785636902e-001</leafValues></_>
        <_>
          <internalNodes>
            0 -1 101 2.2679166868329048e-003</internalNodes>
          <leafValues>
            8.8194943964481354e-002 -2.8440326452255249e-001</leafValues></_>
        <_>
          <internalNodes>
            0 -1 401 1.5491372905671597e-003</internalNodes>
          <leafValues>
            5.8310348540544510e-002 -7.9818880558013916e-001</leafValues></_>
        <_>
          <internalNodes>
            0 -1 534 3.6217650631442666e-004</internalNodes>
          <leafValues>
            -9.8444953560829163e-002 2.6175916194915771e-001</leafValues></_>
        <_>
          <internalNodes>
            0 -1 535 -3.5736907739192247e-004</internalNodes>
          <leafValues>
            2.3319789767265320e-001 -1.0802999883890152e-001</leafValues></_>
        <_>
          <internalNodes>
            0 -1 357 3.7384569644927979e-002</internalNodes>
          <leafValues>
            1.9355030730366707e-002 -8.8274383544921875e-001</leafValues></_>
        <_>
          <internalNodes>
            0 -1 387 1.4931686222553253e-002</internalNodes>
          <leafValues>
            -8.4730140864849091e-002 3.2712310552597046e-001</leafValues></_>
        <_>
          <internalNodes>
            0 -1 442 4.5783375389873981e-004</internalNodes>
          <leafValues>
            -1.1455088108778000e-001 2.5105434656143188e-001</leafValues></_>
        <_>
          <internalNodes>
            0 -1 467 3.9203222841024399e-003</internalNodes>
          <leafValues>
            3.1541217118501663e-002 -7.7159643173217773e-001</leafValues></_>
        <_>
          <internalNodes>
            0 -1 216 2.7739809593185782e-004</internalNodes>
          <leafValues>
            -1.0040710866451263e-001 2.7627411484718323e-001</leafValues></_>
        <_>
          <internalNodes>
            0 -1 505 5.2614724263548851e-003</internalNodes>
          <leafValues>
            -1.4310294389724731e-001 1.9343355298042297e-001</leafValues></_>
        <_>
          <internalNodes>
            0 -1 510 1.0014306753873825e-003</internalNodes>
          <leafValues>
            3.0523568391799927e-002 -8.3778709173202515e-001</leafValues></_>
        <_>
          <internalNodes>
            0 -1 567 -1.3715924978896510e-005</internalNodes>
          <leafValues>
            -2.7507987618446350e-001 9.1558076441287994e-002</leafValues></_>
        <_>
          <internalNodes>
            0 -1 560 1.2616239473572932e-005</internalNodes>
          <leafValues>
            1.4297202229499817e-001 -2.0105242729187012e-001</leafValues></_>
        <_>
          <internalNodes>
            0 -1 556 3.1737811514176428e-004</internalNodes>
          <leafValues>
            -1.0772962123155594e-001 3.0673968791961670e-001</leafValues></_>
        <_>
          <internalNodes>
            0 -1 517 -3.0862600542604923e-003</internalNodes>
          <leafValues>
            -5.7607579231262207e-001 4.0884587913751602e-002</leafValues></_>
        <_>
          <internalNodes>
            0 -1 312 -3.1515948940068483e-003</internalNodes>
          <leafValues>
            -4.6711903810501099e-001 6.0480654239654541e-002</leafValues></_>
        <_>
          <internalNodes>
            0 -1 543 4.7327145002782345e-003</internalNodes>
          <leafValues>
            -1.2936389446258545e-001 2.0195735991001129e-001</leafValues></_>
        <_>
          <internalNodes>
            0 -1 498 1.6045926604419947e-003</internalNodes>
          <leafValues>
            -1.1120151728391647e-001 2.4088221788406372e-001</leafValues></_>
        <_>
          <internalNodes>
            0 -1 314 1.6972887096926570e-003</internalNodes>
          <leafValues>
            -1.1119046807289124e-001 2.2618415951728821e-001</leafValues></_>
        <_>
          <internalNodes>
            0 -1 182 2.9842345975339413e-003</internalNodes>
          <leafValues>
            3.7877678871154785e-002 -6.5582108497619629e-001</leafValues></_>
        <_>
          <internalNodes>
            0 -1 359 1.5127846598625183e-001</internalNodes>
          <leafValues>
            -3.7774231284856796e-002 7.2688019275665283e-001</leafValues></_>
        <_>
          <internalNodes>
            0 -1 321 -2.5664529204368591e-001</internalNodes>
          <leafValues>
            4.5476880669593811e-001 -5.3478218615055084e-002</leafValues></_>
        <_>
          <internalNodes>
            0 -1 202 1.5660893172025681e-002</internalNodes>
          <leafValues>
            -4.8929624259471893e-002 4.8283469676971436e-001</leafValues></_>
        <_>
          <internalNodes>
            0 -1 473 -5.3309544920921326e-002</internalNodes>
          <leafValues>
            -9.4931870698928833e-001 3.3026281744241714e-002</leafValues></_>
        <_>
          <internalNodes>
            0 -1 208 -2.1597529947757721e-001</internalNodes>
          <leafValues>
            6.3516521453857422e-001 -5.0848245620727539e-002</leafValues></_>
        <_>
          <internalNodes>
            0 -1 386 -2.0346094970591366e-004</internalNodes>
          <leafValues>
            2.0988412201404572e-001 -1.1772276461124420e-001</leafValues></_>
        <_>
          <internalNodes>
            0 -1 222 -1.3214770704507828e-002</internalNodes>
          <leafValues>
            3.7255072593688965e-001 -6.9616250693798065e-002</leafValues></_>
        <_>
          <internalNodes>
            0 -1 461 4.0433676913380623e-003</internalNodes>
          <leafValues>
            -9.9049329757690430e-002 2.9803219437599182e-001</leafValues></_>
        <_>
          <internalNodes>
            0 -1 375 -4.2305747047066689e-004</internalNodes>
          <leafValues>
            2.5897619128227234e-001 -1.0647117346525192e-001</leafValues></_>
        <_>
          <internalNodes>
            0 -1 376 2.4668022524565458e-004</internalNodes>
          <leafValues>
            -1.3429073989391327e-001 2.3577681183815002e-001</leafValues></_>
        <_>
          <internalNodes>
            0 -1 80 1.2728460133075714e-003</internalNodes>
          <leafValues>
            3.7596851587295532e-002 -7.8466558456420898e-001</leafValues></_>
        <_>
          <internalNodes>
            0 -1 102 -5.0537404604256153e-004</internalNodes>
          <leafValues>
            2.6607537269592285e-001 -1.1172923445701599e-001</leafValues></_>
        <_>
          <internalNodes>
            0 -1 470 2.5097865727730095e-004</internalNodes>
          <leafValues>
            -1.1184703558683395e-001 2.5825035572052002e-001</leafValues></_>
        <_>
          <internalNodes>
            0 -1 449 1.7241361783817410e-003</internalNodes>
          <leafValues>
            2.9928466305136681e-002 -9.5996266603469849e-001</leafValues></_>
        <_>
          <internalNodes>
            0 -1 340 9.4912009080871940e-004</internalNodes>
          <leafValues>
            -1.1788172274827957e-001 2.5729873776435852e-001</leafValues></_>
        <_>
          <internalNodes>
            0 -1 363 1.1567145120352507e-003</internalNodes>
          <leafValues>
            3.9331082254648209e-002 -7.9223906993865967e-001</leafValues></_>
        <_>
          <internalNodes>
            0 -1 315 1.4845747500658035e-002</internalNodes>
          <leafValues>
            5.7316686958074570e-002 -3.8622587919235229e-001</leafValues></_>
        <_>
          <internalNodes>
            0 -1 465 -1.3332603884919081e-005</internalNodes>
          <leafValues>
            -2.1272614598274231e-001 1.2625573575496674e-001</leafValues></_>
        <_>
          <internalNodes>
            0 -1 573 -2.7564093470573425e-003</internalNodes>
          <leafValues>
            -9.3806296586990356e-001 2.9624130576848984e-002</leafValues></_>
        <_>
          <internalNodes>
            0 -1 523 -7.2507793083786964e-004</internalNodes>
          <leafValues>
            2.9502305388450623e-001 -9.0989477932453156e-002</leafValues></_>
        <_>
          <internalNodes>
            0 -1 450 2.4598648305982351e-003</internalNodes>
          <leafValues>
            3.4756746143102646e-002 -7.7736693620681763e-001</leafValues></_>
        <_>
          <internalNodes>
            0 -1 559 -3.0021073762327433e-003</internalNodes>
          <leafValues>
            -7.8474217653274536e-001 2.7078213170170784e-002</leafValues></_>
        <_>
          <internalNodes>
            0 -1 518 -7.7293557114899158e-004</internalNodes>
          <leafValues>
            2.3939770460128784e-001 -1.1926536262035370e-001</leafValues></_>
        <_>
          <internalNodes>
            0 -1 115 -1.2616239473572932e-005</internalNodes>
          <leafValues>
            -2.0101143419742584e-001 1.3769808411598206e-001</leafValues></_>
        <_>
          <internalNodes>
            0 -1 104 1.4034755527973175e-002</internalNodes>
          <leafValues>
            2.5703351944684982e-002 -9.4728988409042358e-001</leafValues></_>
        <_>
          <internalNodes>
            0 -1 503 -1.6628875164315104e-004</internalNodes>
          <leafValues>
            2.2233608365058899e-001 -1.2032482773065567e-001</leafValues></_></weakClassifiers></_>
    <!-- stage 16 -->
    <_>
      <maxWeakCount>47</maxWeakCount>
      <stageThreshold>-8.6787945032119751e-001</stageThreshold>
      <weakClassifiers>
        <_>
          <internalNodes>
            0 -1 475 1.3402266631601378e-005</internalNodes>
          <leafValues>
            6.5472088754177094e-002 -3.0046224594116211e-001</leafValues></_>
        <_>
          <internalNodes>
            0 -1 390 1.5862504951655865e-003</internalNodes>
          <leafValues>
            3.1126458197832108e-002 -8.2061582803726196e-001</leafValues></_>
        <_>
          <internalNodes>
            0 -1 93 3.4987505059689283e-003</internalNodes>
          <leafValues>
            -1.0649333149194717e-001 2.5340217351913452e-001</leafValues></_>
        <_>
          <internalNodes>
            0 -1 177 2.9914074111729860e-003</internalNodes>
          <leafValues>
            3.2569546252489090e-002 -8.3645647764205933e-001</leafValues></_>
        <_>
          <internalNodes>
            0 -1 73 2.8629519511014223e-004</internalNodes>
          <leafValues>
            -1.1103723943233490e-001 2.4370034039020538e-001</leafValues></_>
        <_>
          <internalNodes>
            0 -1 317 6.0965763404965401e-003</internalNodes>
          <leafValues>
            1.5792634338140488e-002 -7.9186654090881348e-001</leafValues></_>
        <_>
          <internalNodes>
            0 -1 149 6.4061798155307770e-002</internalNodes>
          <leafValues>
            4.2326845228672028e-002 -6.4784383773803711e-001</leafValues></_>
        <_>
          <internalNodes>
            0 -1 501 -4.5772707089781761e-003</internalNodes>
          <leafValues>
            -8.4395819902420044e-001 3.5498119890689850e-002</leafValues></_>
        <_>
          <internalNodes>
            0 -1 262 3.1222323887050152e-003</internalNodes>
          <leafValues>
            -1.0536672919988632e-001 2.6052364706993103e-001</leafValues></_>
        <_>
          <internalNodes>
            0 -1 298 1.6490092966705561e-003</internalNodes>
          <leafValues>
            1.9869659096002579e-002 -8.6246073246002197e-001</leafValues></_>
        <_>
          <internalNodes>
            0 -1 20 1.3216625899076462e-002</internalNodes>
          <leafValues>
            4.0855899453163147e-002 -6.1570334434509277e-001</leafValues></_>
        <_>
          <internalNodes>
            0 -1 233 3.6189407110214233e-003</internalNodes>
          <leafValues>
            -1.1916575580835342e-001 2.0274342596530914e-001</leafValues></_>
        <_>
          <internalNodes>
            0 -1 474 1.6706921160221100e-003</internalNodes>
          <leafValues>
            1.3686332851648331e-002 -9.2559093236923218e-001</leafValues></_>
        <_>
          <internalNodes>
            0 -1 198 -4.7314405441284180e-001</internalNodes>
          <leafValues>
            5.3605675697326660e-001 -4.7713708132505417e-002</leafValues></_>
        <_>
          <internalNodes>
            0 -1 183 -1.0511894524097443e-001</internalNodes>
          <leafValues>
            -2.5857487320899963e-001 1.1706319451332092e-001</leafValues></_>
        <_>
          <internalNodes>
            0 -1 547 3.1435111304745078e-004</internalNodes>
          <leafValues>
            -1.1279547214508057e-001 2.2832097113132477e-001</leafValues></_>
        <_>
          <internalNodes>
            0 -1 481 -1.4327045391837601e-005</internalNodes>
          <leafValues>
            -1.8931569159030914e-001 1.3723367452621460e-001</leafValues></_>
        <_>
          <internalNodes>
            0 -1 515 1.3211113582656253e-005</internalNodes>
          <leafValues>
            9.4368137419223785e-002 -2.3778744041919708e-001</leafValues></_>
        <_>
          <internalNodes>
            0 -1 546 -1.4881803654134274e-003</internalNodes>
          <leafValues>
            3.0612206459045410e-001 -7.5834244489669800e-002</leafValues></_>
        <_>
          <internalNodes>
            0 -1 319 2.4983211187645793e-004</internalNodes>
          <leafValues>
            -1.2412668764591217e-001 2.0145289599895477e-001</leafValues></_>
        <_>
          <internalNodes>
            0 -1 37 9.0795885771512985e-003</internalNodes>
          <leafValues>
            -1.1047358065843582e-001 2.5929787755012512e-001</leafValues></_>
        <_>
          <internalNodes>
            0 -1 471 -1.3670815860677976e-005</internalNodes>
          <leafValues>
            -2.5852316617965698e-001 9.6695855259895325e-002</leafValues></_>
        <_>
          <internalNodes>
            0 -1 406 -2.1169658284634352e-003</internalNodes>
          <leafValues>
            3.1808760762214661e-001 -8.0060370266437531e-002</leafValues></_>
        <_>
          <internalNodes>
            0 -1 522 -1.0124606778845191e-003</internalNodes>
          <leafValues>
            -6.3121563196182251e-001 3.9299383759498596e-002</leafValues></_>
        <_>
          <internalNodes>
            0 -1 25 -1.0862988419830799e-003</internalNodes>
          <leafValues>
            -7.5066947937011719e-001 3.2185278832912445e-002</leafValues></_>
        <_>
          <internalNodes>
            0 -1 0 4.0410569636151195e-004</internalNodes>
          <leafValues>
            -1.0478319227695465e-001 2.5773561000823975e-001</leafValues></_>
        <_>
          <internalNodes>
            0 -1 530 1.4034162741154432e-003</internalNodes>
          <leafValues>
            -1.3896858692169189e-001 1.8436990678310394e-001</leafValues></_>
        <_>
          <internalNodes>
            0 -1 532 4.6840374125167727e-004</internalNodes>
          <leafValues>
            -8.1387862563133240e-002 3.5225468873977661e-001</leafValues></_>
        <_>
          <internalNodes>
            0 -1 144 3.5271998494863510e-003</internalNodes>
          <leafValues>
            6.4653605222702026e-002 -4.1258800029754639e-001</leafValues></_>
        <_>
          <internalNodes>
            0 -1 487 -4.7387719154357910e-002</internalNodes>
          <leafValues>
            5.7374632358551025e-001 -4.8739008605480194e-002</leafValues></_>
        <_>
          <internalNodes>
            0 -1 220 -5.8017350733280182e-002</internalNodes>
          <leafValues>
            2.9181033372879028e-001 -1.0861960053443909e-001</leafValues></_>
        <_>
          <internalNodes>
            0 -1 88 -9.0392597019672394e-002</internalNodes>
          <leafValues>
            2.0621670782566071e-001 -1.4898906648159027e-001</leafValues></_>
        <_>
          <internalNodes>
            0 -1 490 1.4098529391048942e-005</internalNodes>
          <leafValues>
            1.2329098582267761e-001 -2.4108991026878357e-001</leafValues></_>
        <_>
          <internalNodes>
            0 -1 42 4.4420995982363820e-004</internalNodes>
          <leafValues>
            -9.5584042370319366e-002 2.7766591310501099e-001</leafValues></_>
        <_>
          <internalNodes>
            0 -1 354 2.5432272814214230e-003</internalNodes>
          <leafValues>
            3.2564133405685425e-002 -7.1450346708297729e-001</leafValues></_>
        <_>
          <internalNodes>
            0 -1 488 3.2016700133681297e-003</internalNodes>
          <leafValues>
            2.8971372172236443e-002 -6.7847067117691040e-001</leafValues></_>
        <_>
          <internalNodes>
            0 -1 56 5.4832063615322113e-003</internalNodes>
          <leafValues>
            2.2950137034058571e-002 -8.8080775737762451e-001</leafValues></_>
        <_>
          <internalNodes>
            0 -1 496 -4.6103575732558966e-004</internalNodes>
          <leafValues>
            2.2850348055362701e-001 -1.1004265397787094e-001</leafValues></_>
        <_>
          <internalNodes>
            0 -1 35 -1.1279396712779999e-001</internalNodes>
          <leafValues>
            -1.1156369000673294e-001 2.2195361554622650e-001</leafValues></_>
        <_>
          <internalNodes>
            0 -1 289 5.9621524810791016e-001</internalNodes>
          <leafValues>
            -6.7034378647804260e-002 5.6691646575927734e-001</leafValues></_>
        <_>
          <internalNodes>
            0 -1 520 -1.9400571472942829e-003</internalNodes>
          <leafValues>
            2.8898692131042480e-001 -8.9807704091072083e-002</leafValues></_>
        <_>
          <internalNodes>
            0 -1 489 6.8670907057821751e-004</internalNodes>
          <leafValues>
            -8.9360088109970093e-002 3.0168846249580383e-001</leafValues></_>
        <_>
          <internalNodes>
            0 -1 323 -2.4190623313188553e-002</internalNodes>
          <leafValues>
            -8.5494309663772583e-001 3.0846005305647850e-002</leafValues></_>
        <_>
          <internalNodes>
            0 -1 36 3.1683710403740406e-004</internalNodes>
          <leafValues>
            -1.1279050260782242e-001 2.3849545419216156e-001</leafValues></_>
        <_>
          <internalNodes>
            0 -1 565 -1.6091912984848022e-003</internalNodes>
          <leafValues>
            -4.5635777711868286e-001 5.5756188929080963e-002</leafValues></_>
        <_>
          <internalNodes>
            0 -1 572 -2.2399378940463066e-004</internalNodes>
          <leafValues>
            1.9834597408771515e-001 -1.1709254980087280e-001</leafValues></_>
        <_>
          <internalNodes>
            0 -1 361 -3.2765429932624102e-004</internalNodes>
          <leafValues>
            2.1682170033454895e-001 -1.0526854544878006e-001</leafValues></_></weakClassifiers></_>
    <!-- stage 17 -->
    <_>
      <maxWeakCount>53</maxWeakCount>
      <stageThreshold>-9.0143114328384399e-001</stageThreshold>
      <weakClassifiers>
        <_>
          <internalNodes>
            0 -1 267 -1.4429724216461182e-001</internalNodes>
          <leafValues>
            -6.3513511419296265e-001 -3.0737705528736115e-003</leafValues></_>
        <_>
          <internalNodes>
            0 -1 338 5.4196648299694061e-002</internalNodes>
          <leafValues>
            1.9844776391983032e-001 -1.5138758718967438e-001</leafValues></_>
        <_>
          <internalNodes>
            0 -1 412 -2.9122846899554133e-004</internalNodes>
          <leafValues>
            2.3305952548980713e-001 -1.1964713782072067e-001</leafValues></_>
        <_>
          <internalNodes>
            0 -1 188 -3.0352085828781128e-001</internalNodes>
          <leafValues>
            5.9548425674438477e-001 -5.4428651928901672e-002</leafValues></_>
        <_>
          <internalNodes>
            0 -1 368 4.5914400834590197e-004</internalNodes>
          <leafValues>
            -1.1492198705673218e-001 2.1874569356441498e-001</leafValues></_>
        <_>
          <internalNodes>
            0 -1 404 -4.3261200189590454e-003</internalNodes>
          <leafValues>
            -6.2674736976623535e-001 1.0446815751492977e-002</leafValues></_>
        <_>
          <internalNodes>
            0 -1 311 -2.3057069629430771e-003</internalNodes>
          <leafValues>
            3.1761011481285095e-001 -4.7225717455148697e-002</leafValues></_>
        <_>
          <internalNodes>
            0 -1 284 3.7871177773922682e-003</internalNodes>
          <leafValues>
            -1.5451727807521820e-001 2.2566071152687073e-001</leafValues></_>
        <_>
          <internalNodes>
            0 -1 528 5.3318589925765991e-004</internalNodes>
          <leafValues>
            -1.1760862171649933e-001 2.1738810837268829e-001</leafValues></_>
        <_>
          <internalNodes>
            0 -1 433 1.0055471211671829e-003</internalNodes>
          <leafValues>
            8.2409411668777466e-002 -7.2079807519912720e-001</leafValues></_>
        <_>
          <internalNodes>
            0 -1 541 1.2335672181507107e-005</internalNodes>
          <leafValues>
            6.4836211502552032e-002 -2.5609663128852844e-001</leafValues></_>
        <_>
          <internalNodes>
            0 -1 263 4.2197530274279416e-004</internalNodes>
          <leafValues>
            -8.8747076690196991e-002 2.4967879056930542e-001</leafValues></_>
        <_>
          <internalNodes>
            0 -1 444 -3.0002873390913010e-002</internalNodes>
          <leafValues>
            3.2451927661895752e-001 -8.6094416677951813e-002</leafValues></_>
        <_>
          <internalNodes>
            0 -1 22 3.9711529389023781e-003</internalNodes>
          <leafValues>
            4.2460598051548004e-002 -7.1893364191055298e-001</leafValues></_>
        <_>
          <internalNodes>
            0 -1 548 4.5927567407488823e-004</internalNodes>
          <leafValues>
            -1.1942507326602936e-001 1.9565922021865845e-001</leafValues></_>
        <_>
          <internalNodes>
            0 -1 192 1.9047272508032620e-004</internalNodes>
          <leafValues>
            -1.2167318165302277e-001 1.9728602468967438e-001</leafValues></_>
        <_>
          <internalNodes>
            0 -1 545 -1.4462614431977272e-002</internalNodes>
          <leafValues>
            -8.8762462139129639e-001 4.4289723038673401e-002</leafValues></_>
        <_>
          <internalNodes>
            0 -1 250 -3.6466217716224492e-004</internalNodes>
          <leafValues>
            2.0336724817752838e-001 -1.1877746880054474e-001</leafValues></_>
        <_>
          <internalNodes>
            0 -1 249 -1.2590399819600862e-005</internalNodes>
          <leafValues>
            -2.3101077973842621e-001 1.1290623247623444e-001</leafValues></_>
        <_>
          <internalNodes>
            0 -1 218 1.2590399819600862e-005</internalNodes>
          <leafValues>
            1.4478459954261780e-001 -1.8839414417743683e-001</leafValues></_>
        <_>
          <internalNodes>
            0 -1 566 -1.6553655266761780e-002</internalNodes>
          <leafValues>
            5.8714294433593750e-001 -4.0432501584291458e-002</leafValues></_>
        <_>
          <internalNodes>
            0 -1 223 -2.6879179477691650e-001</internalNodes>
          <leafValues>
            6.3591831922531128e-001 -3.8650453090667725e-002</leafValues></_>
        <_>
          <internalNodes>
            0 -1 60 7.1713933721184731e-003</internalNodes>
          <leafValues>
            -7.7044501900672913e-002 3.1091958284378052e-001</leafValues></_>
        <_>
          <internalNodes>
            0 -1 160 4.3236845731735229e-001</internalNodes>
          <leafValues>
            -4.6400718390941620e-002 6.4896023273468018e-001</leafValues></_>
        <_>
          <internalNodes>
            0 -1 525 1.4728192239999771e-002</internalNodes>
          <leafValues>
            6.7575246095657349e-002 -3.7450081110000610e-001</leafValues></_>
        <_>
          <internalNodes>
            0 -1 239 9.0053456369787455e-004</internalNodes>
          <leafValues>
            -9.4012714922428131e-002 2.5100782513618469e-001</leafValues></_>
        <_>
          <internalNodes>
            0 -1 7 4.2589716613292694e-003</internalNodes>
          <leafValues>
            6.0430508106946945e-002 -4.7715327143669128e-001</leafValues></_>
        <_>
          <internalNodes>
            0 -1 63 9.5738214440643787e-004</internalNodes>
          <leafValues>
            -1.0796736925840378e-001 2.3944441974163055e-001</leafValues></_>
        <_>
          <internalNodes>
            0 -1 345 -1.5679514035582542e-005</internalNodes>
          <leafValues>
            -1.3464456796646118e-001 1.7674870789051056e-001</leafValues></_>
        <_>
          <internalNodes>
            0 -1 153 1.5335388481616974e-002</internalNodes>
          <leafValues>
            -1.1228431016206741e-001 2.3937724530696869e-001</leafValues></_>
        <_>
          <internalNodes>
            0 -1 118 -4.3484216928482056e-001</internalNodes>
          <leafValues>
            3.6455336213111877e-001 -7.8217998147010803e-002</leafValues></_>
        <_>
          <internalNodes>
            0 -1 158 -3.5389281809329987e-002</internalNodes>
          <leafValues>
            3.3278685808181763e-001 -1.2182644754648209e-001</leafValues></_>
        <_>
          <internalNodes>
            0 -1 165 -4.7614406794309616e-003</internalNodes>
          <leafValues>
            2.4442514777183533e-001 -1.1083070188760757e-001</leafValues></_>
        <_>
          <internalNodes>
            0 -1 106 -4.6858913265168667e-004</internalNodes>
          <leafValues>
            3.0794981122016907e-001 -8.8970638811588287e-002</leafValues></_>
        <_>
          <internalNodes>
            0 -1 569 1.2335672181507107e-005</internalNodes>
          <leafValues>
            1.0782483220100403e-001 -2.2935453057289124e-001</leafValues></_>
        <_>
          <internalNodes>
            0 -1 245 2.0318668335676193e-002</internalNodes>
          <leafValues>
            4.7325331717729568e-002 -5.0358104705810547e-001</leafValues></_>
        <_>
          <internalNodes>
            0 -1 409 8.9302635751664639e-004</internalNodes>
          <leafValues>
            -1.0987762361764908e-001 2.3178635537624359e-001</leafValues></_>
        <_>
          <internalNodes>
            0 -1 427 5.5636312812566757e-002</internalNodes>
          <leafValues>
            -5.4930284619331360e-002 4.6189945936203003e-001</leafValues></_>
        <_>
          <internalNodes>
            0 -1 186 -5.9442766010761261e-002</internalNodes>
          <leafValues>
            -1.3712787628173828e-001 2.2464847564697266e-001</leafValues></_>
        <_>
          <internalNodes>
            0 -1 242 7.6223373413085938e-002</internalNodes>
          <leafValues>
            5.1582541316747665e-002 -5.2937865257263184e-001</leafValues></_>
        <_>
          <internalNodes>
            0 -1 472 4.0963559877127409e-004</internalNodes>
          <leafValues>
            -1.3991522789001465e-001 1.7009003460407257e-001</leafValues></_>
        <_>
          <internalNodes>
            0 -1 539 9.7457575611770153e-004</internalNodes>
          <leafValues>
            -1.4609847962856293e-001 1.8377962708473206e-001</leafValues></_>
        <_>
          <internalNodes>
            0 -1 506 1.3357438147068024e-003</internalNodes>
          <leafValues>
            2.8329122811555862e-002 -9.1880875825881958e-001</leafValues></_>
        <_>
          <internalNodes>
            0 -1 416 4.3842829763889313e-003</internalNodes>
          <leafValues>
            -1.0514036566019058e-001 2.4749828875064850e-001</leafValues></_>
        <_>
          <internalNodes>
